{"learner":{"attributes":{"scikit_learn":"{\"_estimator_type\": \"classifier\"}"},"feature_names":[],"feature_types":[],"gradient_booster":{"model":{"gbtree_model_param":{"num_parallel_tree":"1","num_trees":"100"},"iteration_indptr":[0,1,2,3,4,5,6,7,8,9,10,11,12,13,14,15,16,17,18,19,20,21,22,23,24,25,26,27,28,29,30,31,32,33,34,35,36,37,38,39,40,41,42,43,44,45,46,47,48,49,50,51,52,53,54,55,56,57,58,59,60,61,62,63,64,65,66,67,68,69,70,71,72,73,74,75,76,77,78,79,80,81,82,83,84,85,86,87,88,89,90,91,92,93,94,95,96,97,98,99,100],"tree_info":[0,0,0,0,0,0,0,0,0,0,0,0,0,0,0,0,0,0,0,0,0,0,0,0,0,0,0,0,0,0,0,0,0,0,0,0,0,0,0,0,0,0,0,0,0,0,0,0,0,0,0,0,0,0,0,0,0,0,0,0,0,0,0,0,0,0,0,0,0,0,0,0,0,0,0,0,0,0,0,0,0,0,0,0,0,0,0,0,0,0,0,0,0,0,0,0,0,0,0,0],"trees":[{"base_weights":[5.4229288E-9,-5.979257E-1,1.7043607E0,-5.466667E-1,1.820122E0,-7.2739655E-1,1.8578054E0,3.3330375E-1,-4.5882356E-1,-5.398034E-1,1.8814585E0,-3.818182E-1,1.885362E-1,1.8965518E0,-2.1953216E-1,-1.783994E-1,5.7261467E-1],"categories":[],"categories_nodes":[],"categories_segments":[],"categories_sizes":[],"default_left":[0,0,0,0,0,0,0,0,0,0,0,0,0,0,0,0,0],"id":0,"left_children":[1,-1,3,-1,5,7,9,-1,-1,11,13,-1,-1,15,-1,-1,-1],"loss_changes":[2.1315776E3,0E0,1.4140448E2,0E0,3.283911E1,9.808204E0,1.9361694E1,0E0,0E0,4.1711497E0,1.4031738E1,0E0,0E0,1.0801392E1,0E0,0E0,0E0],"parents":[2147483647,0,0,2,2,4,4,5,5,6,6,9,9,10,10,13,13],"right_children":[2,-1,4,-1,6,8,10,-1,-1,12,14,-1,-1,16,-1,-1,-1],"split_conditions":[5.858777E-1,-5.979257E-1,3.9888442E-1,-5.466667E-1,1.0180923E0,-3.1457694E0,-1.895167E0,3.3330375E-1,-4.5882356E-1,3.8280652E0,9.3956465E-1,-3.818182E-1,1.885362E-1,5.84054E-1,-2.1953216E-1,-1.783994E-1,5.7261467E-1],"split_indices":[16,0,10,0,13,9,7,0,0,4,8,0,0,11,0,0,0],"split_type":[0,0,0,0,0,0,0,0,0,0,0,0,0,0,0,0,0],"sum_hessian":[6.255E2,2.8825E2,3.3725E2,1.025E1,3.27E2,4.49975E0,3.2250024E2,1.2497503E0,3.25E0,2.9373126E0,3.1956293E2,1.75E0,1.1873127E0,3.180005E2,1.5624375E0,1.3124375E0,3.1668805E2],"tree_param":{"num_deleted":"0","num_feature":"17","num_nodes":"17","size_leaf_vector":"1"}},{"base_weights":[-2.8016777E-3,-4.6323034E-1,1.3034866E0,-4.2864126E-1,1.3940272E0,1.4741193E0,4.8503014E-1,-2.582363E-1,1.491783E0,-5.740923E-1,4.4699582E-1,-2.6568013E-1,1.5052528E0,-2.6773008E-2,4.535128E-1],"categories":[],"categories_nodes":[],"categories_segments":[],"categories_sizes":[],"default_left":[0,0,0,0,0,0,0,0,0,0,0,0,0,0,0],"id":1,"left_children":[1,-1,3,-1,5,7,9,-1,11,-1,-1,-1,13,-1,-1],"loss_changes":[1.162854E3,0E0,7.93277E1,0E0,2.135138E1,1.2752197E1,6.560693E1,0E0,1.0182251E1,0E0,0E0,0E0,2.9675293E0,0E0,0E0],"parents":[2147483647,0,0,2,2,4,4,5,5,6,6,8,8,12,12],"right_children":[2,-1,4,-1,6,8,10,-1,12,-1,-1,-1,14,-1,-1],"split_conditions":[5.858777E-1,-4.6323034E-1,3.9888442E-1,-4.2864126E-1,2.2530062E0,-1.6383448E-1,4.6460533E0,-2.582363E-1,9.515596E-1,-5.740923E-1,4.4699582E-1,-2.6568013E-1,6.1849105E-1,-2.6773008E-2,4.535128E-1],"split_indices":[16,0,10,0,6,8,13,0,13,0,0,0,3,0,0],"split_type":[0,0,0,0,0,0,0,0,0,0,0,0,0,0,0],"sum_hessian":[5.7556305E2,2.6394742E2,3.1161563E2,9.5208E0,3.0209482E2,2.770612E2,2.5033644E1,1.7218648E0,2.7533932E2,7.1244655E0,1.7909178E1,1.186454E0,2.7415286E2,1.0539163E0,2.7309894E2],"tree_param":{"num_deleted":"0","num_feature":"17","num_nodes":"15","size_leaf_vector":"1"}},{"base_weights":[-5.082055E-3,-4.0199122E-1,1.1081346E0,-3.6798576E-1,1.1869348E0,1.4544873E-1,1.248358E0,1.044681E0,-4.6107364E-1,1.2990422E0,6.3775873E-1,3.7646177E-1,-1.0018669E-1,1.0817306E-1,1.3055856E0,-4.2472523E-1,3.84755E-1,3.9264265E-1,1.1909449E-1],"categories":[],"categories_nodes":[],"categories_segments":[],"categories_sizes":[],"default_left":[0,0,0,0,0,0,0,0,0,0,0,0,0,0,0,0,0,0,0],"id":2,"left_children":[1,-1,3,-1,5,7,9,11,-1,13,15,-1,-1,-1,17,-1,-1,-1,-1],"loss_changes":[7.229285E2,0E0,5.0260193E1,0E0,1.6266602E1,2.4980797E1,6.681549E0,3.5094223E0,0E0,8.992615E-1,2.9042397E1,0E0,0E0,0E0,1.2817383E-1,0E0,0E0,0E0,0E0],"parents":[2147483647,0,0,2,2,4,4,5,5,6,6,7,7,9,9,10,10,14,14],"right_children":[2,-1,4,-1,6,8,10,12,-1,14,16,-1,-1,-1,18,-1,-1,-1,-1],"split_conditions":[5.858777E-1,-4.0199122E-1,3.9888442E-1,-3.6798576E-1,1.492082E0,8.5151213E-1,2.2530062E0,1.4959918E0,-4.6107364E-1,-5.1980633E-2,4.6460533E0,3.7646177E-1,-1.0018669E-1,1.0817306E-1,-2.5591552E-1,-4.2472523E-1,3.84755E-1,3.9264265E-1,1.1909449E-1],"split_indices":[16,0,10,0,13,11,6,6,0,8,13,0,0,0,12,0,0,0,0],"split_type":[0,0,0,0,0,0,0,0,0,0,0,0,0,0,0,0,0,0,0],"sum_hessian":[4.8448706E2,2.2021614E2,2.642709E2,8.1526165E0,2.561183E2,1.4451283E1,2.41667E2,9.6645565E0,4.786727E0,2.221033E2,1.95637E1,8.463896E0,1.2006612E0,1.9263777E0,2.2017693E2,4.389059E0,1.5174641E1,2.1895975E2,1.2171843E0],"tree_param":{"num_deleted":"0","num_feature":"17","num_nodes":"19","size_leaf_vector":"1"}},{"base_weights":[-6.1604395E-3,-3.673647E-1,9.901362E-1,-3.2935327E-1,1.062364E0,1.1485041E-1,1.1216562E0,9.125498E-1,-4.034756E-1,-9.3806244E-2,1.1371567E0,-9.417214E-2,3.3936435E-1,1.1777669E0,6.113438E-1,8.8107064E-2,3.544514E-1,-3.5170195E-1,3.4461823E-1],"categories":[],"categories_nodes":[],"categories_segments":[],"categories_sizes":[],"default_left":[0,0,0,0,0,0,0,0,0,0,0,0,0,0,0,0,0,0,0],"id":3,"left_children":[1,-1,3,-1,5,7,9,11,-1,-1,13,-1,-1,15,17,-1,-1,-1,-1],"loss_changes":[4.7762054E2,0E0,3.381157E1,0E0,1.1654221E1,1.6907583E1,4.7414703E0,2.8500686E0,0E0,0E0,3.4519653E0,0E0,0E0,2.4871826E-1,1.6766502E1,0E0,0E0,0E0,0E0],"parents":[2147483647,0,0,2,2,4,4,5,5,6,6,7,7,10,10,13,13,14,14],"right_children":[2,-1,4,-1,6,8,10,12,-1,-1,14,-1,-1,16,18,-1,-1,-1,-1],"split_conditions":[5.858777E-1,-3.673647E-1,3.9888442E-1,-3.2935327E-1,1.492082E0,1.5302517E0,-1.895167E0,1.2959006E0,-4.034756E-1,-9.3806244E-2,2.2530062E0,-9.417214E-2,3.3936435E-1,7.672509E-2,4.6460533E0,8.8107064E-2,3.544514E-1,-3.5170195E-1,3.4461823E-1],"split_indices":[16,0,10,0,13,6,7,6,0,0,6,0,0,14,13,0,0,0,0],"split_type":[0,0,0,0,0,0,0,0,0,0,0,0,0,0,0,0,0,0,0],"sum_hessian":[3.9146838E2,1.7600261E2,2.1546576E2,6.729445E0,2.0873631E2,1.2465745E1,1.9627057E2,8.303251E0,4.162493E0,1.8933734E0,1.943772E2,1.1904784E0,7.112773E0,1.7929013E2,1.5087059E1,1.0898085E0,1.7820033E2,3.2194598E0,1.18675995E1],"tree_param":{"num_deleted":"0","num_feature":"17","num_nodes":"19","size_leaf_vector":"1"}},{"base_weights":[-8.044116E-3,-3.4558254E-1,9.049046E-1,-3.0113617E-1,9.729355E-1,9.0222426E-2,1.0317616E0,8.2422614E-1,-3.4487602E-1,-7.5531825E-2,1.048985E0,3.0887735E-1,-7.132975E-2,1.0884467E0,5.4449517E-1,8.908655E-2,3.281537E-1,-3.0598038E-1,3.185302E-1],"categories":[],"categories_nodes":[],"categories_segments":[],"categories_sizes":[],"default_left":[0,0,0,0,0,0,0,0,0,0,0,0,0,0,0,0,0,0,0],"id":4,"left_children":[1,-1,3,-1,5,7,9,11,-1,-1,13,-1,-1,15,17,-1,-1,-1,-1],"loss_changes":[3.2541245E2,0E0,2.3479599E1,0E0,8.622452E0,1.1487851E1,3.7406464E0,1.9585357E0,0E0,0E0,2.5004883E0,0E0,0E0,2.8666687E-1,1.18236685E1,0E0,0E0,0E0,0E0],"parents":[2147483647,0,0,2,2,4,4,5,5,6,6,7,7,10,10,13,13,14,14],"right_children":[2,-1,4,-1,6,8,10,12,-1,-1,14,-1,-1,16,18,-1,-1,-1,-1],"split_conditions":[5.858777E-1,-3.4558254E-1,3.9888442E-1,-3.0113617E-1,1.492082E0,8.5151213E-1,-1.895167E0,1.4959918E0,-3.4487602E-1,-7.5531825E-2,2.2530062E0,3.0887735E-1,-7.132975E-2,-5.1980633E-2,4.6460533E0,8.908655E-2,3.281537E-1,-3.0598038E-1,3.185302E-1],"split_indices":[16,0,10,0,13,11,7,6,0,0,6,0,0,8,13,0,0,0,0],"split_type":[0,0,0,0,0,0,0,0,0,0,0,0,0,0,0,0,0,0,0],"sum_hessian":[3.0960413E2,1.3730423E2,1.722999E2,5.456484E0,1.6684341E2,1.058247E1,1.5626094E2,6.857705E0,3.7247653E0,1.8887335E0,1.5437221E2,5.7720346E0,1.0856704E0,1.4209952E2,1.2272687E1,1.3421347E0,1.4075739E2,2.8081145E0,9.464572E0],"tree_param":{"num_deleted":"0","num_feature":"17","num_nodes":"19","size_leaf_vector":"1"}},{"base_weights":[-1.021605E-2,-3.3090964E-1,8.361672E-1,-2.783023E-1,9.012933E-1,7.103073E-2,9.601239E-1,7.5362563E-1,-3.170378E-1,-6.0866166E-2,9.7967035E-1,2.8964E-1,-6.4470686E-2,9.9164635E-1,-6.349024E-2,3.0747032E-1,1.633057E-1],"categories":[],"categories_nodes":[],"categories_segments":[],"categories_sizes":[],"default_left":[0,0,0,0,0,0,0,0,0,0,0,0,0,0,0,0,0],"id":5,"left_children":[1,-1,3,-1,5,7,9,11,-1,-1,13,-1,-1,15,-1,-1,-1],"loss_changes":[2.2577577E2,0E0,1.663852E1,0E0,6.4366913E0,8.411696E0,3.0240326E0,1.5915918E0,0E0,0E0,1.9561539E0,0E0,0E0,1.2472382E0,0E0,0E0,0E0],"parents":[2147483647,0,0,2,2,4,4,5,5,6,6,7,7,10,10,13,13],"right_children":[2,-1,4,-1,6,8,10,12,-1,-1,14,-1,-1,16,-1,-1,-1],"split_conditions":[5.858777E-1,-3.3090964E-1,3.9888442E-1,-2.783023E-1,1.492082E0,1.5302517E0,-1.895167E0,7.926211E-1,-3.170378E-1,-6.0866166E-2,9.3864566E-1,2.8964E-1,-6.4470686E-2,2.2530062E0,-6.349024E-2,3.0747032E-1,1.633057E-1],"split_indices":[16,0,10,0,13,6,7,11,0,0,8,0,0,6,0,0,0],"split_type":[0,0,0,0,0,0,0,0,0,0,0,0,0,0,0,0,0],"sum_hessian":[2.4210025E2,1.05534775E2,1.3656548E2,4.391233E0,1.3217426E2,8.891934E0,1.2328231E2,5.746036E0,3.1458983E0,1.8826863E0,1.2139963E2,4.7173877E0,1.0286484E0,1.20357285E2,1.0423405E0,1.10826416E2,9.5308695E0],"tree_param":{"num_deleted":"0","num_feature":"17","num_nodes":"17","size_leaf_vector":"1"}},{"base_weights":[-1.3386194E-2,-3.2046527E-1,7.6527965E-1,-2.5837305E-1,8.2717776E-1,4.9780643E-1,1.0450209E0,8.0992925E-1,-1.7795367E0,3.1810188E-1,1.6850315E-2,9.484402E-1,-3.642684E-1,-7.021866E-1,-2.8624162E-1,-2.1565181E-1,3.0593452E-1],"categories":[],"categories_nodes":[],"categories_segments":[],"categories_sizes":[],"default_left":[0,0,0,0,0,0,0,0,0,0,0,0,0,0,0,0,0],"id":6,"left_children":[1,-1,3,-1,5,7,9,11,13,-1,-1,15,-1,-1,-1,-1,-1],"loss_changes":[1.5734454E2,0E0,1.1809189E1,0E0,7.1348724E0,3.2988586E1,8.9941406E-1,1.228776E1,3.8908768E-1,0E0,0E0,5.2217674E0,0E0,0E0,0E0,0E0,0E0],"parents":[2147483647,0,0,2,2,4,4,5,5,6,6,7,7,8,8,11,11],"right_children":[2,-1,4,-1,6,8,10,12,14,-1,-1,16,-1,-1,-1,-1,-1],"split_conditions":[5.858777E-1,-3.2046527E-1,3.9888442E-1,-2.5837305E-1,4.145775E0,5.4447985E-1,-8.26527E-1,2.0925307E0,2.1175075E0,3.1810188E-1,1.6850315E-2,-1.6383448E-1,-3.642684E-1,-7.021866E-1,-2.8624162E-1,-2.1565181E-1,3.0593452E-1],"split_indices":[16,0,10,0,13,8,9,6,6,0,0,8,0,0,0,0,0],"split_type":[0,0,0,0,0,0,0,0,0,0,0,0,0,0,0,0,0],"sum_hessian":[1.8957031E2,8.035048E1,1.0921984E2,3.5306106E0,1.0568923E2,4.338212E1,6.230711E1,3.8719715E1,4.6624036E0,6.1285427E1,1.0216844E0,3.6737263E1,1.9824528E0,1.6827575E0,2.979646E0,1.1350359E0,3.5602226E1],"tree_param":{"num_deleted":"0","num_feature":"17","num_nodes":"17","size_leaf_vector":"1"}},{"base_weights":[-2.0864861E-2,-3.126077E-1,7.094144E-1,3.1912753E-1,1.0029149E0,6.331135E-1,-4.381937E-1,3.0660152E-1,1.4415483E-2,7.883008E-1,-3.2778662E-1,-2.665053E-1,8.910498E-1,-1.6554071E-1,2.8861314E-1],"categories":[],"categories_nodes":[],"categories_segments":[],"categories_sizes":[],"default_left":[0,0,0,0,0,0,0,0,0,0,0,0,0,0,0],"id":7,"left_children":[1,-1,3,5,7,9,-1,-1,-1,11,-1,-1,13,-1,-1],"loss_changes":[1.10555786E2,0E0,9.583141E0,2.248136E1,8.4186935E-1,9.829747E0,0E0,0E0,0E0,6.1847363E0,0E0,0E0,3.60359E0,0E0,0E0],"parents":[2147483647,0,0,2,2,3,3,4,4,5,5,9,9,12,12],"right_children":[2,-1,4,6,8,10,-1,-1,-1,12,-1,-1,14,-1,-1],"split_conditions":[5.858777E-1,-3.126077E-1,4.145775E0,5.4447985E-1,-8.26527E-1,2.0925307E0,-4.381937E-1,3.0660152E-1,1.4415483E-2,-2.3888728E-1,-3.2778662E-1,-2.665053E-1,3.9888442E-1,-1.6554071E-1,2.8861314E-1],"split_indices":[16,0,13,8,9,6,0,0,0,8,0,0,10,0,0],"split_type":[0,0,0,0,0,0,0,0,0,0,0,0,0,0,0],"sum_hessian":[1.4625998E2,6.0806465E1,8.545351E1,3.757495E1,4.787856E1,3.2487762E1,5.0871887E0,4.687117E1,1.0073884E0,3.030572E1,2.1820424E0,1.3084631E0,2.8997257E1,1.0422599E0,2.7954996E1],"tree_param":{"num_deleted":"0","num_feature":"17","num_nodes":"15","size_leaf_vector":"1"}},{"base_weights":[-2.721125E-2,-3.0630288E-1,6.595364E-1,2.6866522E-1,9.630528E-1,6.2351173E-1,-1.076037E0,2.9603362E-1,2.0403663E-2,-2.2493304E-1,7.745484E-1,-4.865105E-1,1.6064045E-1,8.997225E-1,-2.126192E-1,4.4148825E-3,2.8281012E-1],"categories":[],"categories_nodes":[],"categories_segments":[],"categories_sizes":[],"default_left":[0,0,0,0,0,0,0,0,0,0,0,0,0,0,0,0,0],"id":8,"left_children":[1,-1,3,5,7,9,11,-1,-1,-1,13,-1,-1,15,-1,-1,-1],"loss_changes":[7.825801E1,0E0,7.78858E0,1.5480286E1,7.3550415E-1,5.8054466E0,6.8891263E0,0E0,0E0,0E0,4.9424505E0,0E0,0E0,8.161278E-1,0E0,0E0,0E0],"parents":[2147483647,0,0,2,2,3,3,4,4,5,5,6,6,10,10,13,13],"right_children":[2,-1,4,6,8,10,12,-1,-1,-1,14,-1,-1,16,-1,-1,-1],"split_conditions":[5.858777E-1,-3.0630288E-1,4.145775E0,4.812778E-1,-8.5126185E-1,-2.4269012E-1,3.94399E0,2.9603362E-1,2.0403663E-2,-2.2493304E-1,2.3328187E0,-4.865105E-1,1.6064045E-1,-1.3548232E0,-2.126192E-1,4.4148825E-3,2.8281012E-1],"split_indices":[16,0,13,8,9,15,14,0,0,0,11,0,0,7,0,0,0],"split_type":[0,0,0,0,0,0,0,0,0,0,0,0,0,0,0,0,0],"sum_hessian":[1.1267899E2,4.584687E1,6.683212E1,3.003629E1,3.6795834E1,2.4189396E1,5.8468943E0,3.574578E1,1.0500516E0,2.0039988E0,2.2185396E1,4.3631725E0,1.4837217E0,2.0821676E1,1.3637209E0,1.0264883E0,1.9795187E1],"tree_param":{"num_deleted":"0","num_feature":"17","num_nodes":"17","size_leaf_vector":"1"}},{"base_weights":[-3.1097533E-2,-3.0083877E-1,6.0823035E-1,2.2476901E-1,9.2193085E-1,5.105653E-1,-3.5941344E-1,2.8539738E-1,1.7448008E-2,6.730599E-1,-3.6273825E-1,-2.0448391E-1,8.0886537E-1,-1.13055944E-1,2.684691E-1],"categories":[],"categories_nodes":[],"categories_segments":[],"categories_sizes":[],"default_left":[0,0,0,0,0,0,0,0,0,0,0,0,0,0,0],"id":9,"left_children":[1,-1,3,5,7,9,-1,-1,-1,11,-1,-1,13,-1,-1],"loss_changes":[5.5594727E1,0E0,6.289402E0,1.103124E1,6.906948E-1,6.972408E0,0E0,0E0,0E0,4.374036E0,0E0,0E0,2.3103848E0,0E0,0E0],"parents":[2147483647,0,0,2,2,3,3,4,4,5,5,9,9,12,12],"right_children":[2,-1,4,6,8,10,-1,-1,-1,12,-1,-1,14,-1,-1],"split_conditions":[5.858777E-1,-3.0083877E-1,4.145775E0,2.0925307E0,-8.5126185E-1,5.5478704E-1,-3.5941344E-1,2.8539738E-1,1.7448008E-2,-1.6383448E-1,-3.6273825E-1,-2.0448391E-1,1.0180923E0,-1.13055944E-1,2.684691E-1],"split_indices":[16,0,13,6,9,8,0,0,0,8,0,0,13,0,0],"split_type":[0,0,0,0,0,0,0,0,0,0,0,0,0,0,0],"sum_hessian":[8.750902E1,3.4501915E1,5.3007103E1,2.4623875E1,2.838323E1,2.1038994E1,3.5848804E0,2.7351122E1,1.0321094E0,1.977871E1,1.2602834E0,1.435949E0,1.8342762E1,1.012176E0,1.7330585E1],"tree_param":{"num_deleted":"0","num_feature":"17","num_nodes":"15","size_leaf_vector":"1"}},{"base_weights":[-3.980791E-2,-2.9568198E-1,5.528127E-1,1.716244E-1,8.769343E-1,4.9553674E-1,-9.0722984E-1,2.7386162E-1,1.4920193E-2,-4.472036E-1,6.987009E-1,-4.0546104E-1,1.24815404E-1,9.0938985E-2,-3.1074858E-1,-2.0363809E-1,8.600033E-1,1.5724346E-2,2.7716458E-1],"categories":[],"categories_nodes":[],"categories_segments":[],"categories_sizes":[],"default_left":[0,0,0,0,0,0,0,0,0,0,0,0,0,0,0,0,0,0,0],"id":10,"left_children":[1,-1,3,5,7,9,11,-1,-1,13,15,-1,-1,-1,-1,-1,17,-1,-1],"loss_changes":[3.923947E1,0E0,5.172456E0,7.8027463E0,6.395588E-1,3.5359025E0,3.6266875E0,0E0,0E0,1.9011598E0,3.7469654E0,0E0,0E0,0E0,0E0,0E0,6.317625E-1,0E0,0E0],"parents":[2147483647,0,0,2,2,3,3,4,4,5,5,6,6,9,9,10,10,16,16],"right_children":[2,-1,4,6,8,10,12,-1,-1,14,16,-1,-1,-1,-1,-1,18,-1,-1],"split_conditions":[5.858777E-1,-2.9568198E-1,4.145775E0,4.812778E-1,-8.5126185E-1,-1.177591E0,3.94399E0,2.7386162E-1,1.4920193E-2,-3.3079364E0,9.9330163E-1,-4.0546104E-1,1.24815404E-1,9.0938985E-2,-3.1074858E-1,-2.0363809E-1,4.370176E-1,1.5724346E-2,2.7716458E-1],"split_indices":[16,0,13,8,9,7,14,0,0,9,6,0,0,0,0,0,10,0,0],"split_type":[0,0,0,0,0,0,0,0,0,0,0,0,0,0,0,0,0,0,0],"sum_hessian":[6.803591E1,2.5952936E1,4.2082977E1,2.0041899E1,2.204108E1,1.58298645E1,4.212034E0,2.1024118E1,1.0169616E0,2.5936027E0,1.3236261E1,3.1372979E0,1.0747364E0,1.353406E0,1.2401967E0,1.0511783E0,1.2185083E1,1.0266116E0,1.1158471E1],"tree_param":{"num_deleted":"0","num_feature":"17","num_nodes":"19","size_leaf_vector":"1"}},{"base_weights":[-4.4612058E-2,-2.904016E-1,4.9998352E-1,1.9632016E-1,2.8474972E-1,4.687115E-1,-4.471394E-1,-2.2945186E-1,6.2554663E-1,-8.476244E-2,7.112952E-1,2.494625E-1,2.271947E-2],"categories":[],"categories_nodes":[],"categories_segments":[],"categories_sizes":[],"default_left":[0,0,0,0,0,0,0,0,0,0,0,0,0],"id":11,"left_children":[1,-1,3,5,-1,7,-1,-1,9,-1,11,-1,-1],"loss_changes":[2.7864094E1,0E0,4.5750685E0,1.0847402E1,0E0,4.3047824E0,0E0,0E0,1.6101456E0,0E0,1.2224846E0,0E0,0E0],"parents":[2147483647,0,0,2,2,3,3,5,5,8,8,10,10],"right_children":[2,-1,4,6,-1,8,-1,-1,10,-1,12,-1,-1],"split_conditions":[5.858777E-1,-2.904016E-1,4.9088063E0,6.7768645E-1,2.8474972E-1,-2.4403217E-1,-4.471394E-1,-2.2945186E-1,-1.2742129E-1,-8.476244E-2,2.105746E0,2.494625E-1,2.271947E-2],"split_indices":[16,0,13,8,0,15,0,0,8,0,6,0,0],"split_type":[0,0,0,0,0,0,0,0,0,0,0,0,0],"sum_hessian":[5.3447052E1,1.9539398E1,3.3907654E1,2.1088278E1,1.2819376E1,1.8778027E1,2.3102517E0,1.6808641E0,1.7097162E1,1.2771355E0,1.5820026E1,1.3043826E1,2.7762005E0],"tree_param":{"num_deleted":"0","num_feature":"17","num_nodes":"13","size_leaf_vector":"1"}},{"base_weights":[-5.0759375E-2,-2.846306E-1,4.4213048E-1,1.473367E-1,2.768631E-1,3.989799E-1,-1.2675861E0,-2.1023336E-1,5.4489577E-1,-4.751076E-1,-1.0234043E-1,1.4662333E-1,7.964003E-1,1.5571706E-1,-3.0546772E-1,5.6897465E-2,2.5465623E-1],"categories":[],"categories_nodes":[],"categories_segments":[],"categories_sizes":[],"default_left":[0,0,0,0,0,0,0,0,0,0,0,0,0,0,0,0,0],"id":12,"left_children":[1,-1,3,5,-1,7,9,-1,11,-1,-1,13,15,-1,-1,-1,-1],"loss_changes":[1.9685608E1,0E0,3.94345E0,7.282665E0,0E0,3.0970364E0,3.715105E-1,0E0,1.4358802E0,0E0,0E0,3.663082E0,1.342001E-1,0E0,0E0,0E0,0E0],"parents":[2147483647,0,0,2,2,3,3,5,5,6,6,8,8,11,11,12,12],"right_children":[2,-1,4,6,-1,8,10,-1,12,-1,-1,14,16,-1,-1,-1,-1],"split_conditions":[5.858777E-1,-2.846306E-1,4.9088063E0,6.7768645E-1,2.768631E-1,-2.4403217E-1,1.9814781E0,-2.1023336E-1,7.078718E-1,-4.751076E-1,-1.0234043E-1,1.9749428E0,6.958093E-1,1.5571706E-1,-3.0546772E-1,5.6897465E-2,2.5465623E-1],"split_indices":[16,0,13,8,0,15,6,0,3,0,0,11,11,0,0,0,0],"split_type":[0,0,0,0,0,0,0,0,0,0,0,0,0,0,0,0,0],"sum_hessian":[4.2527504E1,1.4742619E1,2.7784883E1,1.8033323E1,9.75156E0,1.5919984E1,2.11334E0,1.4194056E0,1.4500578E1,1.0467654E0,1.0665745E0,6.22535E0,8.275228E0,5.137237E0,1.0881127E0,1.025762E0,7.249466E0],"tree_param":{"num_deleted":"0","num_feature":"17","num_nodes":"17","size_leaf_vector":"1"}},{"base_weights":[-6.200977E-2,-2.8248215E-1,3.706545E-1,8.93785E-2,2.6738665E-1,3.4649113E-1,-1.1813713E0,-1.8658245E-1,5.025896E-1,2.6818242E-2,-5.5710745E-1,6.461883E-1,-1.614568E-1,-3.798279E-2,2.3280802E-1],"categories":[],"categories_nodes":[],"categories_segments":[],"categories_sizes":[],"default_left":[0,0,0,0,0,0,0,0,0,0,0,0,0,0,0],"id":13,"left_children":[1,-1,3,5,-1,7,9,-1,11,-1,-1,13,-1,-1,-1],"loss_changes":[1.3823637E1,0E0,3.500865E0,5.9589467E0,0E0,2.565084E0,2.814908E0,0E0,2.348235E0,0E0,0E0,1.3240552E0,0E0,0E0,0E0],"parents":[2147483647,0,0,2,2,3,3,5,5,6,6,8,8,11,11],"right_children":[2,-1,4,6,-1,8,10,-1,12,-1,-1,14,-1,-1,-1],"split_conditions":[9.9330163E-1,-2.8248215E-1,4.9088063E0,3.0224411E0,2.6738665E-1,3.9888442E-1,-2.4013977E-1,-1.8658245E-1,6.122169E-1,2.6818242E-2,-5.5710745E-1,-1.3919809E0,-1.614568E-1,-3.798279E-2,2.3280802E-1],"split_indices":[6,0,13,10,0,10,15,0,8,0,0,7,0,0,0],"split_type":[0,0,0,0,0,0,0,0,0,0,0,0,0,0,0],"sum_hessian":[3.4406403E1,1.095626E1,2.3450144E1,1.5985532E1,7.4646125E0,1.3900381E1,2.085151E0,1.5152848E0,1.2385097E1,1.02501E0,1.060141E0,1.121664E1,1.1684564E0,1.6170192E0,9.599621E0],"tree_param":{"num_deleted":"0","num_feature":"17","num_nodes":"15","size_leaf_vector":"1"}},{"base_weights":[-7.709405E-2,-2.707951E-1,3.1661943E-1,4.357355E-2,2.5810617E-1,2.9646692E-1,-3.14738E-1,-1.5996018E-1,4.1622072E-1,6.364968E-1,-7.926777E-2,-6.8200566E-2,2.3843832E-1,-2.4199514E-1,1.808199E-1],"categories":[],"categories_nodes":[],"categories_segments":[],"categories_sizes":[],"default_left":[0,0,0,0,0,0,0,0,0,0,0,0,0,0,0],"id":14,"left_children":[1,-1,3,5,-1,7,-1,-1,9,11,13,-1,-1,-1,-1],"loss_changes":[9.687204E0,0E0,2.980026E0,4.3410373E0,0E0,1.4760458E0,0E0,0E0,1.31565E0,1.2931249E0,2.6970417E0,0E0,0E0,0E0,0E0],"parents":[2147483647,0,0,2,2,3,3,5,5,8,8,9,9,10,10],"right_children":[2,-1,4,6,-1,8,-1,-1,10,12,14,-1,-1,-1,-1],"split_conditions":[5.858777E-1,-2.707951E-1,4.9088063E0,3.0224411E0,2.5810617E-1,3.9888442E-1,-3.14738E-1,-1.5996018E-1,1.9717165E0,-1.2742129E-1,3.641329E0,-6.8200566E-2,2.3843832E-1,-2.4199514E-1,1.808199E-1],"split_indices":[16,0,13,10,0,10,0,0,6,8,13,0,0,0,0],"split_type":[0,0,0,0,0,0,0,0,0,0,0,0,0,0,0],"sum_hessian":[2.7924501E1,8.599668E0,1.9324833E1,1.3583683E1,5.74115E0,1.1622475E1,1.961209E0,1.0305105E0,1.0591964E1,7.13529E0,3.4566739E0,1.0375022E0,6.097788E0,1.584242E0,1.8724319E0],"tree_param":{"num_deleted":"0","num_feature":"17","num_nodes":"15","size_leaf_vector":"1"}},{"base_weights":[-7.921683E-2,-2.6422045E-1,2.7780885E-1,-9.470511E-2,6.323032E-1,3.5133365E-1,-7.0811343E-1,2.4548356E-1,8.027126E-2,-7.898564E-2,5.6083286E-1,-2.8483438E-1,1.1385606E-2,-1.6516028E-1,1.7465624E-1,6.8213013E-3,2.0999481E-1],"categories":[],"categories_nodes":[],"categories_segments":[],"categories_sizes":[],"default_left":[0,0,0,0,0,0,0,0,0,0,0,0,0,0,0,0,0],"id":15,"left_children":[1,-1,3,5,7,9,11,-1,13,-1,15,-1,-1,-1,-1,-1,-1],"loss_changes":[7.108391E0,0E0,2.3515577E0,2.8019729E0,8.6059093E-1,9.294174E-1,8.0311775E-1,0E0,1.3914126E0,0E0,3.4703815E-1,0E0,0E0,0E0,0E0,0E0,0E0],"parents":[2147483647,0,0,2,2,3,3,4,4,5,5,6,6,8,8,10,10],"right_children":[2,-1,4,6,8,10,12,-1,14,-1,16,-1,-1,-1,-1,-1,-1],"split_conditions":[9.065427E-1,-2.6422045E-1,4.0683794E0,3.5033867E-1,4.1168675E0,-1.2742129E-1,3.0725262E0,2.4548356E-1,1.0592255E1,-7.898564E-2,5.423603E-1,-2.8483438E-1,1.1385606E-2,-1.6516028E-1,1.7465624E-1,6.8213013E-3,2.0999481E-1],"split_indices":[13,0,13,8,10,8,4,0,4,0,10,0,0,0,0,0,0],"split_type":[0,0,0,0,0,0,0,0,0,0,0,0,0,0,0,0,0],"sum_hessian":[2.2985376E1,6.6313086E0,1.6354067E1,8.331698E0,8.022369E0,5.071332E0,3.2603662E0,5.6399956E0,2.3823738E0,1.2239186E0,3.8474133E0,2.2575092E0,1.0028571E0,1.0127236E0,1.3696502E0,1.0295451E0,2.8178682E0],"tree_param":{"num_deleted":"0","num_feature":"17","num_nodes":"17","size_leaf_vector":"1"}},{"base_weights":[-7.3207155E-2,-5.4164475E-1,4.8945272E-1,-7.343354E-1,1.6628692E-1,2.539721E-1,-6.8256214E-2,-2.528853E-1,-2.7728194E-1,-5.388113E-1,1.7953731E-1,-2.7658105E-1,1.4138143E-1,-2.8740934E-1,2.9404517E-2],"categories":[],"categories_nodes":[],"categories_segments":[],"categories_sizes":[],"default_left":[0,0,0,0,0,0,0,0,0,0,0,0,0,0,0],"id":16,"left_children":[1,3,5,7,-1,-1,9,11,-1,13,-1,-1,-1,-1,-1],"loss_changes":[5.6563544E0,2.8644044E0,2.0132387E0,7.105932E-1,0E0,0E0,1.8151764E0,2.516908E0,0E0,9.7906387E-1,0E0,0E0,0E0,0E0,0E0],"parents":[2147483647,0,0,1,1,2,2,3,3,6,6,7,7,9,9],"right_children":[2,4,6,8,-1,-1,10,12,-1,14,-1,-1,-1,-1,-1],"split_conditions":[7.078718E-1,4.81102E0,7.9601663E-1,-1.2450752E0,1.6628692E-1,2.539721E-1,6.747903E0,-9.355076E-1,-2.7728194E-1,-2.3896825E-1,1.7953731E-1,-2.7658105E-1,1.4138143E-1,-2.8740934E-1,2.9404517E-2],"split_indices":[3,13,3,9,0,0,4,7,0,15,0,0,0,0,0],"split_type":[0,0,0,0,0,0,0,0,0,0,0,0,0,0,0],"sum_hessian":[1.9454617E1,1.0636577E1,8.81804E0,9.326676E0,1.3099002E0,5.059995E0,3.758045E0,3.2981088E0,6.028568E0,2.3155851E0,1.4424597E0,1.5723189E0,1.7257899E0,1.0922071E0,1.2233781E0],"tree_param":{"num_deleted":"0","num_feature":"17","num_nodes":"15","size_leaf_vector":"1"}},{"base_weights":[-6.7752294E-2,-4.925194E-1,4.4403833E-1,-6.7960906E-1,1.5276706E-1,2.419814E-1,-7.1464956E-2,-2.3785987E-1,-2.5705987E-1,-4.899962E-1,1.6612795E-1,-2.566563E-1,1.2274567E-1,-2.5034872E-1,2.0633318E-2],"categories":[],"categories_nodes":[],"categories_segments":[],"categories_sizes":[],"default_left":[0,0,0,0,0,0,0,0,0,0,0,0,0,0,0],"id":17,"left_children":[1,3,5,7,-1,-1,9,11,-1,13,-1,-1,-1,-1,-1],"loss_changes":[3.9407597E0,2.188424E0,1.6072952E0,4.78333E-1,0E0,0E0,1.4075736E0,1.9001776E0,0E0,6.6020936E-1,0E0,0E0,0E0,0E0,0E0],"parents":[2147483647,0,0,1,1,2,2,3,3,6,6,7,7,9,9],"right_children":[2,4,6,8,-1,-1,10,12,-1,14,-1,-1,-1,-1,-1],"split_conditions":[7.078718E-1,4.81102E0,7.9601663E-1,-1.2450752E0,1.5276706E-1,2.419814E-1,6.747903E0,-9.355076E-1,-2.5705987E-1,-2.1132548E0,1.6612795E-1,-2.566563E-1,1.2274567E-1,-2.5034872E-1,2.0633318E-2],"split_indices":[3,13,3,9,0,0,4,7,0,9,0,0,0,0,0],"split_type":[0,0,0,0,0,0,0,0,0,0,0,0,0,0,0],"sum_hessian":[1.6121445E1,8.830289E0,7.291156E0,7.71161E0,1.1186786E0,3.949019E0,3.342137E0,2.8788958E0,4.832714E0,2.1315472E0,1.2105896E0,1.3079833E0,1.5709125E0,1.013349E0,1.1181983E0],"tree_param":{"num_deleted":"0","num_feature":"17","num_nodes":"15","size_leaf_vector":"1"}},{"base_weights":[-6.0322907E-2,-2.3009726E-1,2.0886958E-1,-1.4874437E-2,2.1337478E-1,2.7699164E-1,-2.4823405E-1,4.8187974E-1,-1.4989412E-1,-1.24647645E-2,1.854417E-1,-1.7650633E-1,1.1680526E-1],"categories":[],"categories_nodes":[],"categories_segments":[],"categories_sizes":[],"default_left":[0,0,0,0,0,0,0,0,0,0,0,0,0],"id":18,"left_children":[1,-1,3,5,-1,7,-1,9,11,-1,-1,-1,-1],"loss_changes":[2.9547753E0,0E0,1.2946974E0,2.3360136E0,0E0,7.0940894E-1,0E0,3.9368486E-1,9.6802056E-1,0E0,0E0,0E0,0E0],"parents":[2147483647,0,0,2,2,3,3,5,5,7,7,8,8],"right_children":[2,-1,4,6,-1,8,-1,10,12,-1,-1,-1,-1],"split_conditions":[9.9330163E-1,-2.3009726E-1,4.9088063E0,3.0224411E0,2.1337478E-1,1.9717165E0,-2.4823405E-1,1.4084333E0,3.641329E0,-1.24647645E-2,1.854417E-1,-1.7650633E-1,1.1680526E-1],"split_indices":[6,0,13,10,0,6,0,13,13,0,0,0,0],"split_type":[0,0,0,0,0,0,0,0,0,0,0,0,0],"sum_hessian":[1.3690525E1,3.2664387E0,1.0424087E1,7.8834424E0,2.540644E0,6.2850475E0,1.5983949E0,4.159722E0,2.125326E0,1.0027622E0,3.1569593E0,1.121976E0,1.0033499E0],"tree_param":{"num_deleted":"0","num_feature":"17","num_nodes":"13","size_leaf_vector":"1"}},{"base_weights":[-5.7866506E-2,-2.1484481E-1,1.9131465E-1,-1.1418456E-2,2.0212954E-1,2.9925662E-1,-5.691224E-1,4.289886E-1,-5.0559793E-2,6.296787E-2,-3.1073326E-1,7.752798E-3,5.284563E-1,5.4549355E-2,1.8740088E-1],"categories":[],"categories_nodes":[],"categories_segments":[],"categories_sizes":[],"default_left":[0,0,0,0,0,0,0,0,0,0,0,0,0,0,0],"id":19,"left_children":[1,-1,3,5,-1,7,9,11,-1,-1,-1,-1,13,-1,-1],"loss_changes":[2.2709968E0,0E0,1.0079302E0,1.5883081E0,0E0,4.3104666E-1,1.4070773E0,1.8323457E-1,0E0,0E0,0E0,0E0,1.6043425E-2,0E0,0E0],"parents":[2147483647,0,0,2,2,3,3,5,5,6,6,7,7,12,12],"right_children":[2,-1,4,6,-1,8,10,12,-1,-1,-1,-1,14,-1,-1],"split_conditions":[5.94624E-1,-2.1484481E-1,4.9088063E0,2.5680294E0,2.0212954E-1,4.812778E-1,-2.3923396E-1,1.5283985E0,-5.0559793E-2,6.296787E-2,-3.1073326E-1,7.752798E-3,9.827206E-1,5.4549355E-2,1.8740088E-1],"split_indices":[16,0,13,11,0,8,15,13,0,0,0,0,10,0,0],"split_type":[0,0,0,0,0,0,0,0,0,0,0,0,0,0,0],"sum_hessian":[1.2009603E1,2.7831392E0,9.226463E0,7.1839776E0,2.0424857E0,4.911427E0,2.2725508E0,3.910009E0,1.001418E0,1.0574704E0,1.2150804E0,1.0231115E0,2.8868973E0,1.2550908E0,1.6318065E0],"tree_param":{"num_deleted":"0","num_feature":"17","num_nodes":"15","size_leaf_vector":"1"}},{"base_weights":[-4.977185E-2,-3.476147E-1,4.3530196E-1,-6.1797106E-1,1.6205138E-1,2.0385627E-1,-4.1774143E-2,-2.1741819E-2,-2.2140238E-1,1.623922E-1,-7.69254E-2],"categories":[],"categories_nodes":[],"categories_segments":[],"categories_sizes":[],"default_left":[0,0,0,0,0,0,0,0,0,0,0],"id":20,"left_children":[1,3,5,7,9,-1,-1,-1,-1,-1,-1],"loss_changes":[1.8489482E0,1.179898E0,7.841507E-1,2.9538417E-1,6.9558716E-1,0E0,0E0,0E0,0E0,0E0,0E0],"parents":[2147483647,0,0,1,1,2,2,3,3,4,4],"right_children":[2,4,6,8,10,-1,-1,-1,-1,-1,-1],"split_conditions":[4.0683794E0,7.078718E-1,4.1168675E0,-1.5689222E0,7.9601663E-1,2.0385627E-1,-4.1774143E-2,-2.1741819E-2,-2.2140238E-1,1.623922E-1,-7.69254E-2],"split_indices":[13,3,10,12,3,0,0,0,0,0,0],"split_type":[0,0,0,0,0,0,0,0,0,0,0],"sum_hessian":[1.0750281E1,6.836154E0,3.914127E0,4.3278894E0,2.5082643E0,2.6184294E0,1.2956977E0,1.0698396E0,3.2580497E0,1.1617957E0,1.3464687E0],"tree_param":{"num_deleted":"0","num_feature":"17","num_nodes":"11","size_leaf_vector":"1"}},{"base_weights":[-3.6578394E-2,-1.9505242E-1,1.6128747E-1,-1.6279751E-1,4.2007884E-1,1.10727385E-1,-5.4996246E-1,-4.968142E-2,1.896755E-1,-1.1779563E-2,-2.3353562E-1],"categories":[],"categories_nodes":[],"categories_segments":[],"categories_sizes":[],"default_left":[0,0,0,0,0,0,0,0,0,0,0],"id":21,"left_children":[1,-1,3,5,7,-1,9,-1,-1,-1,-1],"loss_changes":[1.4074283E0,0E0,8.1599426E-1,1.1663935E0,7.552964E-1,0E0,3.3223492E-1,0E0,0E0,0E0,0E0],"parents":[2147483647,0,0,2,2,3,3,4,4,6,6],"right_children":[2,-1,4,6,8,-1,10,-1,-1,-1,-1],"split_conditions":[5.5319345E-1,-1.9505242E-1,7.078718E-1,7.0702773E-1,-1.7190273E0,1.10727385E-1,1.5536618E0,-4.968142E-2,1.896755E-1,-1.1779563E-2,-2.3353562E-1],"split_indices":[11,0,3,3,7,0,11,0,0,0,0],"split_type":[0,0,0,0,0,0,0,0,0,0,0],"sum_hessian":[9.728653E0,1.8148222E0,7.913831E0,3.6783533E0,4.235478E0,1.569226E0,2.109127E0,1.1847007E0,3.050777E0,1.01418E0,1.0949472E0],"tree_param":{"num_deleted":"0","num_feature":"17","num_nodes":"11","size_leaf_vector":"1"}},{"base_weights":[-4.7078565E-2,-2.1787278E-1,1.7448539E-1,-6.4265975E-3,-2.4879108E-1,-1.8604015E-1,2.7634996E-1,1.8517708E-2,1.7521954E-1,7.7878825E-2,-9.88419E-2],"categories":[],"categories_nodes":[],"categories_segments":[],"categories_sizes":[],"default_left":[0,0,0,0,0,0,0,0,0,0,0],"id":22,"left_children":[1,3,-1,5,-1,-1,7,9,-1,-1,-1],"loss_changes":[1.1784E0,1.0844604E0,0E0,1.4332291E0,0E0,0E0,4.389869E-1,4.3095624E-1,0E0,0E0,0E0],"parents":[2147483647,0,0,1,1,3,3,6,6,7,7],"right_children":[2,4,-1,6,-1,-1,8,10,-1,-1,-1],"split_conditions":[6.747903E0,3.0224411E0,1.7448539E-1,9.065427E-1,-2.4879108E-1,-1.8604015E-1,3.8091753E0,1.6912627E0,1.7521954E-1,7.7878825E-2,-9.88419E-2],"split_indices":[4,10,0,13,0,0,13,6,0,0,0],"split_type":[0,0,0,0,0,0,0,0,0,0,0],"sum_hessian":[8.794222E0,7.42938E0,1.3648422E0,6.271179E0,1.1582007E0,1.6017972E0,4.669382E0,3.1174617E0,1.5519202E0,1.9916888E0,1.125773E0],"tree_param":{"num_deleted":"0","num_feature":"17","num_nodes":"11","size_leaf_vector":"1"}},{"base_weights":[-4.7135033E-2,-2.029461E-1,1.6145796E-1,3.4673836E-3,-2.2079246E-1,-1.5988715E-1,2.1034364E-1,-8.202873E-2,4.255782E-1,-8.683787E-3,1.835415E-1],"categories":[],"categories_nodes":[],"categories_segments":[],"categories_sizes":[],"default_left":[0,0,0,0,0,0,0,0,0,0,0],"id":23,"left_children":[1,3,-1,5,-1,-1,7,-1,9,-1,-1],"loss_changes":[9.2274964E-1,8.5755527E-1,0E0,8.4420574E-1,0E0,0E0,6.8675923E-1,0E0,3.7172723E-1,0E0,0E0],"parents":[2147483647,0,0,1,1,3,3,6,6,8,8],"right_children":[2,4,-1,6,-1,-1,8,-1,10,-1,-1],"split_conditions":[6.747903E0,6.7768645E-1,1.6145796E-1,3.9888442E-1,-2.2079246E-1,-1.5988715E-1,-1.2241613E0,-8.202873E-2,9.813014E-1,-8.683787E-3,1.835415E-1],"split_indices":[4,8,0,10,0,0,7,0,4,0,0],"split_type":[0,0,0,0,0,0,0,0,0,0,0],"sum_hessian":[7.9201765E0,6.7710414E0,1.149135E0,5.597085E0,1.1739563E0,1.1190937E0,4.4779916E0,1.295586E0,3.1824055E0,1.1703924E0,2.012013E0],"tree_param":{"num_deleted":"0","num_feature":"17","num_nodes":"11","size_leaf_vector":"1"}},{"base_weights":[-5.012339E-2,-2.8121093E-1,3.2524833E-1,-4.6478388E-1,2.911837E-2,1.680778E-1,-4.153032E-2,-4.3800235E-2,-1.6690768E-1],"categories":[],"categories_nodes":[],"categories_segments":[],"categories_sizes":[],"default_left":[0,0,0,0,0,0,0,0,0],"id":24,"left_children":[1,3,5,7,-1,-1,-1,-1,-1],"loss_changes":[7.976078E-1,4.3224147E-1,4.6610573E-1,3.3387184E-2,0E0,0E0,0E0,0E0,0E0],"parents":[2147483647,0,0,1,1,2,2,3,3],"right_children":[2,4,6,8,-1,-1,-1,-1,-1],"split_conditions":[4.0683794E0,7.078718E-1,4.0668654E0,-2.000337E0,2.911837E-2,1.680778E-1,-4.153032E-2,-4.3800235E-2,-1.6690768E-1],"split_indices":[13,3,10,9,0,0,0,0,0],"split_type":[0,0,0,0,0,0,0,0,0],"sum_hessian":[7.1405826E0,4.574971E0,2.5656116E0,2.9262023E0,1.6487689E0,1.5644239E0,1.0011876E0,1.2319555E0,1.6942468E0],"tree_param":{"num_deleted":"0","num_feature":"17","num_nodes":"9","size_leaf_vector":"1"}},{"base_weights":[-4.378497E-2,-1.9510315E-1,1.4510661E-1,-2.3836633E-2,-1.671234E-1,-2.4391921E-1,8.665025E-2,-1.4916617E-1,1.5489926E-2],"categories":[],"categories_nodes":[],"categories_segments":[],"categories_sizes":[],"default_left":[0,0,0,0,0,0,0,0,0],"id":25,"left_children":[1,3,-1,5,-1,7,-1,-1,-1],"loss_changes":[7.1178883E-1,4.035487E-1,0E0,4.5641643E-1,0E0,3.1269825E-1,0E0,0E0,0E0],"parents":[2147483647,0,0,1,1,3,3,5,5],"right_children":[2,4,-1,6,-1,8,-1,-1,-1],"split_conditions":[4.9088063E0,6.7768645E-1,1.4510661E-1,3.2106318E0,-1.671234E-1,1.0070252E0,8.665025E-2,-1.4916617E-1,1.5489926E-2],"split_indices":[13,8,0,13,0,4,0,0,0],"split_type":[0,0,0,0,0,0,0,0,0],"sum_hessian":[6.735503E0,5.723656E0,1.0118471E0,4.608853E0,1.1148031E0,2.8339667E0,1.7748863E0,1.158628E0,1.6753387E0],"tree_param":{"num_deleted":"0","num_feature":"17","num_nodes":"9","size_leaf_vector":"1"}},{"base_weights":[-4.2134028E-2,-2.3027205E-1,2.7438778E-1,3.1531155E-2,-1.374484E-1,1.5015349E-1,-2.8166903E-2,-7.533357E-2,9.413469E-2],"categories":[],"categories_nodes":[],"categories_segments":[],"categories_sizes":[],"default_left":[0,0,0,0,0,0,0,0,0],"id":26,"left_children":[1,3,5,7,-1,-1,-1,-1,-1],"loss_changes":[4.9850658E-1,3.2043394E-1,3.119412E-1,3.438395E-1,0E0,0E0,0E0,0E0,0E0],"parents":[2147483647,0,0,1,1,2,2,3,3],"right_children":[2,4,6,8,-1,-1,-1,-1,-1],"split_conditions":[4.0683794E0,3.5033867E-1,3.5055568E0,1.2719327E0,-1.374484E-1,1.5015349E-1,-2.8166903E-2,-7.533357E-2,9.413469E-2],"split_indices":[13,8,10,6,0,0,0,0,0],"split_type":[0,0,0,0,0,0,0,0,0],"sum_hessian":[6.3102317E0,4.1286736E0,2.181558E0,2.3223524E0,1.8063211E0,1.1291775E0,1.0523806E0,1.2154946E0,1.1068578E0],"tree_param":{"num_deleted":"0","num_feature":"17","num_nodes":"9","size_leaf_vector":"1"}},{"base_weights":[-2.9427744E-2,-2.6233813E-1,2.1290115E-1,-1.3646492E-1,3.0469032E-2,1.6731048E-1,-4.4304878E-2],"categories":[],"categories_nodes":[],"categories_segments":[],"categories_sizes":[],"default_left":[0,0,0,0,0,0,0],"id":27,"left_children":[1,3,5,-1,-1,-1,-1],"loss_changes":[4.509017E-1,3.2766157E-1,5.77484E-1,0E0,0E0,0E0,0E0],"parents":[2147483647,0,0,1,1,2,2],"right_children":[2,4,6,-1,-1,-1,-1],"split_conditions":[7.078718E-1,-1.3517356E-1,7.9601663E-1,-1.3646492E-1,3.0469032E-2,1.6731048E-1,-4.4304878E-2],"split_indices":[3,15,3,0,0,0,0],"split_type":[0,0,0,0,0,0,0],"sum_hessian":[5.999347E0,3.0170188E0,2.9823284E0,1.8095477E0,1.2074713E0,1.2450835E0,1.7372448E0],"tree_param":{"num_deleted":"0","num_feature":"17","num_nodes":"7","size_leaf_vector":"1"}},{"base_weights":[-1.7554475E-2,-1.4718619E-1,1.08038366E-1,-1.493977E-1,1.0093491E-1,-8.9972675E-2,9.86729E-2],"categories":[],"categories_nodes":[],"categories_segments":[],"categories_sizes":[],"default_left":[0,0,0,0,0,0,0],"id":28,"left_children":[1,3,-1,-1,5,-1,-1],"loss_changes":[3.8139915E-1,5.467012E-1,0E0,0E0,4.798974E-1,0E0,0E0],"parents":[2147483647,0,0,1,1,4,4],"right_children":[2,4,-1,-1,6,-1,-1],"split_conditions":[7.5629306E0,-1.2241613E0,1.08038366E-1,-1.493977E-1,6.6916686E-1,-8.9972675E-2,9.86729E-2],"split_indices":[16,7,0,0,16,0,0],"split_type":[0,0,0,0,0,0,0],"sum_hessian":[5.707433E0,4.7033844E0,1.0040491E0,1.5313005E0,3.1720839E0,1.0356258E0,2.136458E0],"tree_param":{"num_deleted":"0","num_feature":"17","num_nodes":"7","size_leaf_vector":"1"}},{"base_weights":[-1.7350418E-2,-2.5002852E-1,1.888977E-1,-1.5331767E-3,-1.2726188E-1,-5.4680668E-2,1.3130717E-1],"categories":[],"categories_nodes":[],"categories_segments":[],"categories_sizes":[],"default_left":[0,0,0,0,0,0,0],"id":29,"left_children":[1,3,5,-1,-1,-1,-1],"loss_changes":[3.562762E-1,1.452802E-1,4.4762522E-1,0E0,0E0,0E0,0E0],"parents":[2147483647,0,0,1,1,2,2],"right_children":[2,4,6,-1,-1,-1,-1],"split_conditions":[1.4140606E0,1.2938467E0,3.8579383E0,-1.5331767E-3,-1.2726188E-1,-5.4680668E-2,1.3130717E-1],"split_indices":[6,11,13,0,0,0,0],"split_type":[0,0,0,0,0,0,0],"sum_hessian":[5.439886E0,2.456417E0,2.9834688E0,1.4486942E0,1.0077229E0,1.3045847E0,1.678884E0],"tree_param":{"num_deleted":"0","num_feature":"17","num_nodes":"7","size_leaf_vector":"1"}},{"base_weights":[-1.9406812E-2,-1.079346E-1,1.14606366E-1,3.0558243E-1,-4.787928E-2,4.0985253E-3,1.3926275E-1],"categories":[],"categories_nodes":[],"categories_segments":[],"categories_sizes":[],"default_left":[0,0,0,0,0,0,0],"id":30,"left_children":[1,-1,3,5,-1,-1,-1],"loss_changes":[3.2701454E-1,0E0,3.2388467E-1,1.529471E-1,0E0,0E0,0E0],"parents":[2147483647,0,0,2,2,3,3],"right_children":[2,-1,4,6,-1,-1,-1],"split_conditions":[5.557153E-1,-1.079346E-1,2.7059405E0,3.0729752E0,-4.787928E-2,4.0985253E-3,1.3926275E-1],"split_indices":[10,0,10,13,0,0,0],"split_type":[0,0,0,0,0,0,0],"sum_hessian":[5.2651052E0,1.0114597E0,4.2536454E0,2.43989E0,1.8137558E0,1.2414238E0,1.1984661E0],"tree_param":{"num_deleted":"0","num_feature":"17","num_nodes":"7","size_leaf_vector":"1"}},{"base_weights":[-1.5101408E-2,-2.2364752E-1,1.9703804E-1,2.7321206E-2,-1.16516225E-1,-2.6715623E-2,1.0352579E-1],"categories":[],"categories_nodes":[],"categories_segments":[],"categories_sizes":[],"default_left":[0,0,0,0,0,0,0],"id":31,"left_children":[1,3,5,-1,-1,-1,-1],"loss_changes":[3.1305444E-1,2.1861614E-1,1.8090862E-1,0E0,0E0,0E0,0E0],"parents":[2147483647,0,0,1,1,2,2],"right_children":[2,4,6,-1,-1,-1,-1],"split_conditions":[7.078718E-1,7.0702773E-1,-1.6282237E0,2.7321206E-2,-1.16516225E-1,-2.6715623E-2,1.0352579E-1],"split_indices":[3,3,7,0,0,0,0],"split_type":[0,0,0,0,0,0,0],"sum_hessian":[5.080067E0,2.534374E0,2.5456932E0,1.024452E0,1.5099221E0,1.0040134E0,1.5416796E0],"tree_param":{"num_deleted":"0","num_feature":"17","num_nodes":"7","size_leaf_vector":"1"}},{"base_weights":[-1.2806248E-2,-9.4009556E-2,1.11779295E-1,-3.449582E-2,8.953986E-2],"categories":[],"categories_nodes":[],"categories_segments":[],"categories_sizes":[],"default_left":[0,0,0,0,0],"id":32,"left_children":[1,-1,3,-1,-1],"loss_changes":[2.5714657E-1,0E0,2.4305303E-1,0E0,0E0],"parents":[2147483647,0,0,2,2],"right_children":[2,-1,4,-1,-1],"split_conditions":[6.4675E-1,-9.4009556E-2,-1.2241613E0,-3.449582E-2,8.953986E-2],"split_indices":[10,0,7,0,0],"split_type":[0,0,0,0,0],"sum_hessian":[4.931822E0,1.0011988E0,3.930623E0,1.9482217E0,1.9824013E0],"tree_param":{"num_deleted":"0","num_feature":"17","num_nodes":"5","size_leaf_vector":"1"}},{"base_weights":[-1.5649058E-2,-9.2065066E-2,1.1384448E-1,2.589224E-1,-3.519578E-2,1.1190195E-1,3.3265927E-3],"categories":[],"categories_nodes":[],"categories_segments":[],"categories_sizes":[],"default_left":[0,0,0,0,0,0,0],"id":33,"left_children":[1,-1,3,5,-1,-1,-1],"loss_changes":[2.5417605E-1,0E0,1.8979377E-1,8.7255925E-2,0E0,0E0,0E0],"parents":[2147483647,0,0,2,2,3,3],"right_children":[2,-1,4,6,-1,-1,-1],"split_conditions":[5.548687E-1,-9.2065066E-2,7.9601663E-1,-1.6710033E0,-3.519578E-2,1.1190195E-1,3.3265927E-3],"split_indices":[14,0,3,12,0,0,0],"split_type":[0,0,0,0,0,0,0],"sum_hessian":[4.8133574E0,1.0598501E0,3.7535074E0,2.2323847E0,1.5211226E0,1.1828307E0,1.049554E0],"tree_param":{"num_deleted":"0","num_feature":"17","num_nodes":"7","size_leaf_vector":"1"}},{"base_weights":[-1.2837009E-2,-2.0255055E-1,1.7649414E-1,7.407844E-3,-1.09004766E-1,-1.5954258E-2,8.865063E-2],"categories":[],"categories_nodes":[],"categories_segments":[],"categories_sizes":[],"default_left":[0,0,0,0,0,0,0],"id":34,"left_children":[1,3,5,-1,-1,-1,-1],"loss_changes":[2.4017926E-1,1.2986599E-1,1.0818256E-1,0E0,0E0,0E0,0E0],"parents":[2147483647,0,0,1,1,2,2],"right_children":[2,4,6,-1,-1,-1,-1],"split_conditions":[7.078718E-1,-1.474015E0,-1.6282237E0,7.407844E-3,-1.09004766E-1,-1.5954258E-2,8.865063E-2],"split_indices":[3,9,7,0,0,0,0],"split_type":[0,0,0,0,0,0,0],"sum_hessian":[4.691475E0,2.3084955E0,2.3829794E0,1.3073555E0,1.00114E0,1.0021156E0,1.3808638E0],"tree_param":{"num_deleted":"0","num_feature":"17","num_nodes":"7","size_leaf_vector":"1"}},{"base_weights":[-1.4502366E-2,-1.5998207E-1,6.2659174E-2,2.1013135E-2,-1.05720304E-1],"categories":[],"categories_nodes":[],"categories_segments":[],"categories_sizes":[],"default_left":[0,0,0,0,0],"id":35,"left_children":[1,3,-1,-1,-1],"loss_changes":[2.1449459E-1,1.9911166E-1,0E0,0E0,0E0],"parents":[2147483647,0,0,1,1],"right_children":[2,4,-1,-1,-1],"split_conditions":[4.0683794E0,3.5033867E-1,6.2659174E-2,2.1013135E-2,-1.05720304E-1],"split_indices":[13,8,0,0,0],"split_type":[0,0,0,0,0],"sum_hessian":[4.572508E0,2.9408705E0,1.6316375E0,1.6292171E0,1.3116535E0],"tree_param":{"num_deleted":"0","num_feature":"17","num_nodes":"5","size_leaf_vector":"1"}},{"base_weights":[-1.4591237E-2,-2.0526758E-1,1.5914029E-1,-2.0668874E-3,-9.13317E-2,-4.981073E-2,1.12689056E-1],"categories":[],"categories_nodes":[],"categories_segments":[],"categories_sizes":[],"default_left":[0,0,0,0,0,0,0],"id":36,"left_children":[1,3,5,-1,-1,-1,-1],"loss_changes":[2.1354842E-1,5.7708368E-2,3.0315614E-1,0E0,0E0,0E0,0E0],"parents":[2147483647,0,0,1,1,2,2],"right_children":[2,4,6,-1,-1,-1,-1],"split_conditions":[1.4140606E0,1.067536E0,3.8579383E0,-2.0668874E-3,-9.13317E-2,-4.981073E-2,1.12689056E-1],"split_indices":[6,11,13,0,0,0,0],"split_type":[0,0,0,0,0,0,0],"sum_hessian":[4.4603457E0,2.03993E0,2.4204154E0,1.036345E0,1.0035851E0,1.0605237E0,1.3598918E0],"tree_param":{"num_deleted":"0","num_feature":"17","num_nodes":"7","size_leaf_vector":"1"}},{"base_weights":[-1.5191445E-2,-7.363649E-2,1.0586186E-1,9.465506E-2,-4.3483794E-2],"categories":[],"categories_nodes":[],"categories_segments":[],"categories_sizes":[],"default_left":[0,0,0,0,0],"id":37,"left_children":[1,-1,3,-1,-1],"loss_changes":[1.7501345E-1,0E0,2.667358E-1,0E0,0E0],"parents":[2147483647,0,0,2,2],"right_children":[2,-1,4,-1,-1],"split_conditions":[1.9269665E0,-7.363649E-2,2.7059405E0,9.465506E-2,-4.3483794E-2],"split_indices":[13,0,10,0,0],"split_type":[0,0,0,0,0],"sum_hessian":[4.346498E0,1.1435727E0,3.2029252E0,1.6040593E0,1.5988659E0],"tree_param":{"num_deleted":"0","num_feature":"17","num_nodes":"5","size_leaf_vector":"1"}},{"base_weights":[-1.4652387E-2,-1.7672113E-1,1.4694762E-1,3.2411946E-4,-8.145207E-2,-4.4380818E-3,7.047526E-2],"categories":[],"categories_nodes":[],"categories_segments":[],"categories_sizes":[],"default_left":[0,0,0,0,0,0,0],"id":38,"left_children":[1,3,5,-1,-1,-1,-1],"loss_changes":[1.6335422E-1,5.2083433E-2,4.8616484E-2,0E0,0E0,0E0,0E0],"parents":[2147483647,0,0,1,1,2,2],"right_children":[2,4,6,-1,-1,-1,-1],"split_conditions":[7.078718E-1,-1.7768844E0,-3.1693501E0,3.2411946E-4,-8.145207E-2,-4.4380818E-3,7.047526E-2],"split_indices":[3,9,9,0,0,0,0],"split_type":[0,0,0,0,0,0,0],"sum_hessian":[4.245661E0,2.073038E0,2.1726224E0,1.0646127E0,1.0084254E0,1.0584296E0,1.1141928E0],"tree_param":{"num_deleted":"0","num_feature":"17","num_nodes":"7","size_leaf_vector":"1"}},{"base_weights":[-1.3336321E-2,-5.248889E-2,1.3478169E-1,-4.502583E-2,9.9676505E-2],"categories":[],"categories_nodes":[],"categories_segments":[],"categories_sizes":[],"default_left":[0,0,0,0,0],"id":39,"left_children":[1,-1,3,-1,-1],"loss_changes":[1.4758058E-1,0E0,2.3368233E-1,0E0,0E0],"parents":[2147483647,0,0,2,2],"right_children":[2,-1,4,-1,-1],"split_conditions":[1.4140606E0,-5.248889E-2,3.8579383E0,-4.502583E-2,9.9676505E-2],"split_indices":[6,0,13,0,0],"split_type":[0,0,0,0,0],"sum_hessian":[4.1796045E0,1.9119936E0,2.2676108E0,1.0266176E0,1.2409933E0],"tree_param":{"num_deleted":"0","num_feature":"17","num_nodes":"5","size_leaf_vector":"1"}},{"base_weights":[-8.382776E-3,-5.0161038E-2,1.2579301E-1,8.410252E-2,-3.316546E-2],"categories":[],"categories_nodes":[],"categories_segments":[],"categories_sizes":[],"default_left":[0,0,0,0,0],"id":40,"left_children":[1,-1,3,-1,-1],"loss_changes":[1.296036E-1,0E0,1.5271251E-1,0E0,0E0],"parents":[2147483647,0,0,2,2],"right_children":[2,-1,4,-1,-1],"split_conditions":[-1.2241613E0,-5.0161038E-2,-1.1335132E0,8.410252E-2,-3.316546E-2],"split_indices":[7,0,9,0,0],"split_type":[0,0,0,0,0],"sum_hessian":[4.0948443E0,1.7624829E0,2.3323612E0,1.2976526E0,1.0347086E0],"tree_param":{"num_deleted":"0","num_feature":"17","num_nodes":"5","size_leaf_vector":"1"}},{"base_weights":[-5.347494E-3,-4.819692E-2,1.4389741E-1,5.034408E-4,6.422225E-2],"categories":[],"categories_nodes":[],"categories_segments":[],"categories_sizes":[],"default_left":[0,0,0,0,0],"id":41,"left_children":[1,-1,3,-1,-1],"loss_changes":[1.3998143E-1,0E0,3.056617E-2,0E0,0E0],"parents":[2147483647,0,0,2,2],"right_children":[2,-1,4,-1,-1],"split_conditions":[7.078718E-1,-4.819692E-2,-3.1693501E0,5.034408E-4,6.422225E-2],"split_indices":[3,0,9,0,0],"split_type":[0,0,0,0,0],"sum_hessian":[4.0417647E0,1.9431748E0,2.0985897E0,1.0316908E0,1.066899E0],"tree_param":{"num_deleted":"0","num_feature":"17","num_nodes":"5","size_leaf_vector":"1"}},{"base_weights":[-3.4404427E-4,-1.08666725E-1,5.4086663E-2,-9.7677864E-2,2.6696766E-2],"categories":[],"categories_nodes":[],"categories_segments":[],"categories_sizes":[],"default_left":[0,0,0,0,0],"id":42,"left_children":[1,3,-1,-1,-1],"loss_changes":[1.17465325E-1,1.8979853E-1,0E0,0E0,0E0],"parents":[2147483647,0,0,1,1],"right_children":[2,4,-1,-1,-1],"split_conditions":[4.5255046E0,-9.1750777E-1,5.4086663E-2,-9.7677864E-2,2.6696766E-2],"split_indices":[16,7,0,0,0],"split_type":[0,0,0,0,0],"sum_hessian":[4.002081E0,2.7508507E0,1.2512302E0,1.0029016E0,1.7479491E0],"tree_param":{"num_deleted":"0","num_feature":"17","num_nodes":"5","size_leaf_vector":"1"}},{"base_weights":[-3.8929405E-3,9.8954424E-2,-5.7106633E-2,-2.594404E-2,8.2509026E-2],"categories":[],"categories_nodes":[],"categories_segments":[],"categories_sizes":[],"default_left":[0,0,0,0,0],"id":43,"left_children":[1,3,-1,-1,-1],"loss_changes":[1.1311952E-1,1.4872618E-1,0E0,0E0,0E0],"parents":[2147483647,0,0,1,1],"right_children":[2,4,-1,-1,-1],"split_conditions":[6.7768645E-1,3.2106318E0,-5.7106633E-2,-2.594404E-2,8.2509026E-2],"split_indices":[8,13,0,0,0],"split_type":[0,0,0,0,0],"sum_hessian":[3.9164171E0,2.8266337E0,1.0897835E0,1.6245652E0,1.2020684E0],"tree_param":{"num_deleted":"0","num_feature":"17","num_nodes":"5","size_leaf_vector":"1"}},{"base_weights":[-2.4252876E-3,-4.3628544E-2,1.2763537E-1,-2.8481068E-2,8.766905E-2],"categories":[],"categories_nodes":[],"categories_segments":[],"categories_sizes":[],"default_left":[0,0,0,0,0],"id":44,"left_children":[1,-1,3,-1,-1],"loss_changes":[1.0892853E-1,0E0,1.40469E-1,0E0,0E0],"parents":[2147483647,0,0,2,2],"right_children":[2,-1,4,-1,-1],"split_conditions":[1.4140606E0,-4.3628544E-2,3.0752194E0,-2.8481068E-2,8.766905E-2],"split_indices":[6,0,16,0,0],"split_type":[0,0,0,0,0],"sum_hessian":[3.8586633E0,1.781607E0,2.0770564E0,1.0629275E0,1.0141288E0],"tree_param":{"num_deleted":"0","num_feature":"17","num_nodes":"5","size_leaf_vector":"1"}},{"base_weights":[1.980006E-3,-4.2141616E-2,4.4102687E-2],"categories":[],"categories_nodes":[],"categories_segments":[],"categories_sizes":[],"default_left":[0,0,0],"id":45,"left_children":[1,-1,-1],"loss_changes":[1.1993352E-1,0E0,0E0],"parents":[2147483647,0,0],"right_children":[2,-1,-1],"split_conditions":[-9.355076E-1,-4.2141616E-2,4.4102687E-2],"split_indices":[7,0,0],"split_type":[0,0,0],"sum_hessian":[3.8056364E0,1.9357256E0,1.8699108E0],"tree_param":{"num_deleted":"0","num_feature":"17","num_nodes":"3","size_leaf_vector":"1"}},{"base_weights":[1.8941927E-3,-3.90151E-2,1.2150984E-1,-2.6934056E-2,8.109801E-2],"categories":[],"categories_nodes":[],"categories_segments":[],"categories_sizes":[],"default_left":[0,0,0,0,0],"id":46,"left_children":[1,-1,3,-1,-1],"loss_changes":[9.140314E-2,0E0,1.1952554E-1,0E0,0E0],"parents":[2147483647,0,0,2,2],"right_children":[2,-1,4,-1,-1],"split_conditions":[1.4140606E0,-3.90151E-2,3.9646814E0,-2.6934056E-2,8.109801E-2],"split_indices":[6,0,13,0,0],"split_type":[0,0,0,0,0],"sum_hessian":[3.7901235E0,1.7607056E0,2.029418E0,1.0026143E0,1.0268037E0],"tree_param":{"num_deleted":"0","num_feature":"17","num_nodes":"5","size_leaf_vector":"1"}},{"base_weights":[4.9126158E-3,1.0315109E-1,-5.2897133E-2,-1.6820943E-2,7.0741095E-2],"categories":[],"categories_nodes":[],"categories_segments":[],"categories_sizes":[],"default_left":[0,0,0,0,0],"id":47,"left_children":[1,3,-1,-1,-1],"loss_changes":[1.0262801E-1,9.150602E-2,0E0,0E0,0E0],"parents":[2147483647,0,0,1,1],"right_children":[2,4,-1,-1,-1],"split_conditions":[6.7768645E-1,3.0729752E0,-5.2897133E-2,-1.6820943E-2,7.0741095E-2],"split_indices":[8,13,0,0,0],"split_type":[0,0,0,0,0],"sum_hessian":[3.7426524E0,2.706469E0,1.0361832E0,1.4924372E0,1.2140319E0],"tree_param":{"num_deleted":"0","num_feature":"17","num_nodes":"5","size_leaf_vector":"1"}},{"base_weights":[3.9865654E-3,-4.1982062E-2,1.2010275E-1,7.654047E-2,-2.5028436E-2],"categories":[],"categories_nodes":[],"categories_segments":[],"categories_sizes":[],"default_left":[0,0,0,0,0],"id":48,"left_children":[1,-1,3,-1,-1],"loss_changes":[9.534387E-2,0E0,1.0755819E-1,0E0,0E0],"parents":[2147483647,0,0,2,2],"right_children":[2,-1,4,-1,-1],"split_conditions":[-1.2241613E0,-4.1982062E-2,-1.3316609E0,7.654047E-2,-2.5028436E-2],"split_indices":[7,0,9,0,0],"split_type":[0,0,0,0,0],"sum_hessian":[3.699354E0,1.5602455E0,2.1391084E0,1.1335278E0,1.0055807E0],"tree_param":{"num_deleted":"0","num_feature":"17","num_nodes":"5","size_leaf_vector":"1"}},{"base_weights":[5.187888E-3,-5.250962E-2,1.0311121E-1,7.77075E-2,-3.3612665E-2],"categories":[],"categories_nodes":[],"categories_segments":[],"categories_sizes":[],"default_left":[0,0,0,0,0],"id":49,"left_children":[1,-1,3,-1,-1],"loss_changes":[1.0026517E-1,0E0,1.5139231E-1,0E0,0E0],"parents":[2147483647,0,0,2,2],"right_children":[2,-1,4,-1,-1],"split_conditions":[1.0924785E0,-5.250962E-2,7.9601663E-1,7.77075E-2,-3.3612665E-2],"split_indices":[4,0,3,0,0],"split_type":[0,0,0,0,0],"sum_hessian":[3.6588075E0,1.0108957E0,2.6479118E0,1.4170903E0,1.2308215E0],"tree_param":{"num_deleted":"0","num_feature":"17","num_nodes":"5","size_leaf_vector":"1"}},{"base_weights":[2.2094897E-3,-3.9522924E-2,3.8572345E-2],"categories":[],"categories_nodes":[],"categories_segments":[],"categories_sizes":[],"default_left":[0,0,0],"id":50,"left_children":[1,-1,-1],"loss_changes":[9.472524E-2,0E0,0E0],"parents":[2147483647,0,0],"right_children":[2,-1,-1],"split_conditions":[7.078718E-1,-3.9522924E-2,3.8572345E-2],"split_indices":[3,0,0],"split_type":[0,0,0],"sum_hessian":[3.5954301E0,1.7246566E0,1.8707736E0],"tree_param":{"num_deleted":"0","num_feature":"17","num_nodes":"3","size_leaf_vector":"1"}},{"base_weights":[1.4134913E-3,-3.7805185E-2,4.0063694E-2],"categories":[],"categories_nodes":[],"categories_segments":[],"categories_sizes":[],"default_left":[0,0,0],"id":51,"left_children":[1,-1,-1],"loss_changes":[9.3701854E-2,0E0,0E0],"parents":[2147483647,0,0],"right_children":[2,-1,-1],"split_conditions":[-9.355076E-1,-3.7805185E-2,4.0063694E-2],"split_indices":[7,0,0],"split_type":[0,0,0],"sum_hessian":[3.565516E0,1.838607E0,1.726909E0],"tree_param":{"num_deleted":"0","num_feature":"17","num_nodes":"3","size_leaf_vector":"1"}},{"base_weights":[1.5569899E-3,-9.8513626E-2,4.9027707E-2,2.5290342E-2,-7.614382E-2],"categories":[],"categories_nodes":[],"categories_segments":[],"categories_sizes":[],"default_left":[0,0,0,0,0],"id":52,"left_children":[1,3,-1,-1,-1],"loss_changes":[8.984951E-2,1.1898929E-1,0E0,0E0,0E0],"parents":[2147483647,0,0,1,1],"right_children":[2,4,-1,-1,-1],"split_conditions":[4.5255046E0,3.5033867E-1,4.9027707E-2,2.5290342E-2,-7.614382E-2],"split_indices":[16,8,0,0,0],"split_type":[0,0,0,0,0],"sum_hessian":[3.5529375E0,2.4374518E0,1.1154858E0,1.3295286E0,1.1079232E0],"tree_param":{"num_deleted":"0","num_feature":"17","num_nodes":"5","size_leaf_vector":"1"}},{"base_weights":[6.369789E-4,-3.6964625E-2,3.4152597E-2],"categories":[],"categories_nodes":[],"categories_segments":[],"categories_sizes":[],"default_left":[0,0,0],"id":53,"left_children":[1,-1,-1],"loss_changes":[7.7059515E-2,0E0,0E0],"parents":[2147483647,0,0],"right_children":[2,-1,-1],"split_conditions":[1.4140606E0,-3.6964625E-2,3.4152597E-2],"split_indices":[6,0,0],"split_type":[0,0,0],"sum_hessian":[3.4956665E0,1.627102E0,1.8685646E0],"tree_param":{"num_deleted":"0","num_feature":"17","num_nodes":"3","size_leaf_vector":"1"}},{"base_weights":[-1.3246374E-4,-3.5800725E-2,3.6620226E-2],"categories":[],"categories_nodes":[],"categories_segments":[],"categories_sizes":[],"default_left":[0,0,0],"id":54,"left_children":[1,-1,-1],"loss_changes":[7.985268E-2,0E0,0E0],"parents":[2147483647,0,0],"right_children":[2,-1,-1],"split_conditions":[-9.355076E-1,-3.5800725E-2,3.6620226E-2],"split_indices":[7,0,0],"split_type":[0,0,0],"sum_hessian":[3.481867E0,1.7744086E0,1.7074584E0],"tree_param":{"num_deleted":"0","num_feature":"17","num_nodes":"3","size_leaf_vector":"1"}},{"base_weights":[1.4689704E-4,-9.181156E-2,4.4774584E-2,1.9784387E-2,-6.7000665E-2],"categories":[],"categories_nodes":[],"categories_segments":[],"categories_sizes":[],"default_left":[0,0,0,0,0],"id":55,"left_children":[1,3,-1,-1,-1],"loss_changes":[7.500958E-2,8.4959224E-2,0E0,0E0,0E0],"parents":[2147483647,0,0,1,1],"right_children":[2,4,-1,-1,-1],"split_conditions":[4.5255046E0,3.5033867E-1,4.4774584E-2,1.9784387E-2,-6.7000665E-2],"split_indices":[16,8,0,0,0],"split_type":[0,0,0,0,0],"sum_hessian":[3.4713073E0,2.3847492E0,1.0865582E0,1.3109206E0,1.0738285E0],"tree_param":{"num_deleted":"0","num_feature":"17","num_nodes":"5","size_leaf_vector":"1"}},{"base_weights":[-4.78287E-4,9.5406905E-2,-4.125485E-2,-3.1224793E-2,7.113412E-2],"categories":[],"categories_nodes":[],"categories_segments":[],"categories_sizes":[],"default_left":[0,0,0,0,0],"id":56,"left_children":[1,3,-1,-1,-1],"loss_changes":[7.12737E-2,1.14977136E-1,0E0,0E0,0E0],"parents":[2147483647,0,0,1,1],"right_children":[2,4,-1,-1,-1],"split_conditions":[7.9601663E-1,9.077178E-1,-4.125485E-2,-3.1224793E-2,7.113412E-2],"split_indices":[3,14,0,0,0],"split_type":[0,0,0,0,0],"sum_hessian":[3.425734E0,2.194228E0,1.2315063E0,1.0215853E0,1.1726425E0],"tree_param":{"num_deleted":"0","num_feature":"17","num_nodes":"5","size_leaf_vector":"1"}},{"base_weights":[-3.5557765E-4,-3.4729052E-2,3.1893417E-2],"categories":[],"categories_nodes":[],"categories_segments":[],"categories_sizes":[],"default_left":[0,0,0],"id":57,"left_children":[1,-1,-1],"loss_changes":[6.62603E-2,0E0,0E0],"parents":[2147483647,0,0],"right_children":[2,-1,-1],"split_conditions":[1.4140606E0,-3.4729052E-2,3.1893417E-2],"split_indices":[6,0,0],"split_type":[0,0,0],"sum_hessian":[3.3828096E0,1.5838687E0,1.7989409E0],"tree_param":{"num_deleted":"0","num_feature":"17","num_nodes":"3","size_leaf_vector":"1"}},{"base_weights":[-8.575333E-4,-3.6139634E-2,3.330665E-2],"categories":[],"categories_nodes":[],"categories_segments":[],"categories_sizes":[],"default_left":[0,0,0],"id":58,"left_children":[1,-1,-1],"loss_changes":[7.1864344E-2,0E0,0E0],"parents":[2147483647,0,0],"right_children":[2,-1,-1],"split_conditions":[-1.0098553E0,-3.6139634E-2,3.330665E-2],"split_indices":[7,0,0],"split_type":[0,0,0],"sum_hessian":[3.3708966E0,1.5920901E0,1.7788063E0],"tree_param":{"num_deleted":"0","num_feature":"17","num_nodes":"3","size_leaf_vector":"1"}},{"base_weights":[-1.2084125E-3,-8.990477E-2,4.284203E-2,1.4669819E-2,-6.0021274E-2],"categories":[],"categories_nodes":[],"categories_segments":[],"categories_sizes":[],"default_left":[0,0,0,0,0],"id":59,"left_children":[1,3,-1,-1,-1],"loss_changes":[6.8549335E-2,6.0439877E-2,0E0,0E0,0E0],"parents":[2147483647,0,0,1,1],"right_children":[2,4,-1,-1,-1],"split_conditions":[4.5255046E0,3.5033867E-1,4.284203E-2,1.4669819E-2,-6.0021274E-2],"split_indices":[16,8,0,0,0],"split_type":[0,0,0,0,0],"sum_hessian":[3.3613572E0,2.312721E0,1.0486362E0,1.2694297E0,1.0432914E0],"tree_param":{"num_deleted":"0","num_feature":"17","num_nodes":"5","size_leaf_vector":"1"}},{"base_weights":[-1.4378486E-3,-8.8201866E-2,3.9432816E-2,1.6652523E-2,-6.0662467E-2],"categories":[],"categories_nodes":[],"categories_segments":[],"categories_sizes":[],"default_left":[0,0,0,0,0],"id":60,"left_children":[1,3,-1,-1,-1],"loss_changes":[6.144322E-2,6.38857E-2,0E0,0E0,0E0],"parents":[2147483647,0,0,1,1],"right_children":[2,4,-1,-1,-1],"split_conditions":[4.145775E0,3.16093E-1,3.9432816E-2,1.6652523E-2,-6.0662467E-2],"split_indices":[13,8,0,0,0],"split_type":[0,0,0,0,0],"sum_hessian":[3.3237615E0,2.2142224E0,1.1095389E0,1.2064933E0,1.0077292E0],"tree_param":{"num_deleted":"0","num_feature":"17","num_nodes":"5","size_leaf_vector":"1"}},{"base_weights":[-2.1095132E-3,2.9225692E-2,-3.663205E-2],"categories":[],"categories_nodes":[],"categories_segments":[],"categories_sizes":[],"default_left":[0,0,0],"id":61,"left_children":[1,-1,-1],"loss_changes":[6.309268E-2,0E0,0E0],"parents":[2147483647,0,0],"right_children":[2,-1,-1],"split_conditions":[2.3328187E0,2.9225692E-2,-3.663205E-2],"split_indices":[11,0,0],"split_type":[0,0,0],"sum_hessian":[3.2867382E0,1.8994491E0,1.387289E0],"tree_param":{"num_deleted":"0","num_feature":"17","num_nodes":"3","size_leaf_vector":"1"}},{"base_weights":[-3.1760172E-3,-3.9290205E-2,2.9830262E-2],"categories":[],"categories_nodes":[],"categories_segments":[],"categories_sizes":[],"default_left":[0,0,0],"id":62,"left_children":[1,-1,-1],"loss_changes":[6.915568E-2,0E0,0E0],"parents":[2147483647,0,0],"right_children":[2,-1,-1],"split_conditions":[3.0729752E0,-3.9290205E-2,2.9830262E-2],"split_indices":[13,0,0],"split_type":[0,0,0],"sum_hessian":[3.280816E0,1.3380471E0,1.9427688E0],"tree_param":{"num_deleted":"0","num_feature":"17","num_nodes":"3","size_leaf_vector":"1"}},{"base_weights":[-4.446591E-3,-3.5225328E-2,2.6817335E-2],"categories":[],"categories_nodes":[],"categories_segments":[],"categories_sizes":[],"default_left":[0,0,0],"id":63,"left_children":[1,-1,-1],"loss_changes":[5.559572E-2,0E0,0E0],"parents":[2147483647,0,0],"right_children":[2,-1,-1],"split_conditions":[-1.2241613E0,-3.5225328E-2,2.6817335E-2],"split_indices":[7,0,0],"split_type":[0,0,0],"sum_hessian":[3.2542975E0,1.3625903E0,1.8917072E0],"tree_param":{"num_deleted":"0","num_feature":"17","num_nodes":"3","size_leaf_vector":"1"}},{"base_weights":[-5.066873E-3,-9.083936E-2,4.0246062E-2,9.523585E-3,-4.9514573E-2],"categories":[],"categories_nodes":[],"categories_segments":[],"categories_sizes":[],"default_left":[0,0,0,0,0],"id":64,"left_children":[1,3,-1,-1,-1],"loss_changes":[6.291555E-2,3.457662E-2,0E0,0E0,0E0],"parents":[2147483647,0,0,1,1],"right_children":[2,4,-1,-1,-1],"split_conditions":[4.5255046E0,9.1157746E-1,4.0246062E-2,9.523585E-3,-4.9514573E-2],"split_indices":[16,16,0,0,0],"split_type":[0,0,0,0,0],"sum_hessian":[3.2482145E0,2.2249537E0,1.0232608E0,1.0547887E0,1.1701648E0],"tree_param":{"num_deleted":"0","num_feature":"17","num_nodes":"5","size_leaf_vector":"1"}},{"base_weights":[-3.4874703E-3,-3.318502E-2,2.949161E-2],"categories":[],"categories_nodes":[],"categories_segments":[],"categories_sizes":[],"default_left":[0,0,0],"id":65,"left_children":[1,-1,-1],"loss_changes":[5.687369E-2,0E0,0E0],"parents":[2147483647,0,0],"right_children":[2,-1,-1],"split_conditions":[1.4140606E0,-3.318502E-2,2.949161E-2],"split_indices":[6,0,0],"split_type":[0,0,0],"sum_hessian":[3.2182038E0,1.5257659E0,1.6924379E0],"tree_param":{"num_deleted":"0","num_feature":"17","num_nodes":"3","size_leaf_vector":"1"}},{"base_weights":[-3.2906346E-3,2.593017E-2,-3.6316603E-2],"categories":[],"categories_nodes":[],"categories_segments":[],"categories_sizes":[],"default_left":[0,0,0],"id":66,"left_children":[1,-1,-1],"loss_changes":[5.4929018E-2,0E0,0E0],"parents":[2147483647,0,0],"right_children":[2,-1,-1],"split_conditions":[2.5680294E0,2.593017E-2,-3.6316603E-2],"split_indices":[11,0,0],"split_type":[0,0,0],"sum_hessian":[3.2082262E0,1.9718932E0,1.2363329E0],"tree_param":{"num_deleted":"0","num_feature":"17","num_nodes":"3","size_leaf_vector":"1"}},{"base_weights":[-4.752284E-3,-3.9537124E-2,7.93689E-2,-3.203355E-2,7.069856E-2],"categories":[],"categories_nodes":[],"categories_segments":[],"categories_sizes":[],"default_left":[0,0,0,0,0],"id":67,"left_children":[1,-1,3,-1,-1],"loss_changes":[5.537767E-2,0E0,1.1689113E-1,0E0,0E0],"parents":[2147483647,0,0,2,2],"right_children":[2,-1,4,-1,-1],"split_conditions":[2.7853467E0,-3.9537124E-2,-2.60567E0,-3.203355E-2,7.069856E-2],"split_indices":[13,0,9,0,0],"split_type":[0,0,0,0,0],"sum_hessian":[3.2031722E0,1.0503227E0,2.1528497E0,1.1271735E0,1.0256761E0],"tree_param":{"num_deleted":"0","num_feature":"17","num_nodes":"5","size_leaf_vector":"1"}},{"base_weights":[-3.3158506E-3,8.704295E-2,-4.0101796E-2,-1.0693435E-2,5.0993413E-2],"categories":[],"categories_nodes":[],"categories_segments":[],"categories_sizes":[],"default_left":[0,0,0,0,0],"id":68,"left_children":[1,3,-1,-1,-1],"loss_changes":[6.0640816E-2,3.722359E-2,0E0,0E0,0E0],"parents":[2147483647,0,0,1,1],"right_children":[2,4,-1,-1,-1],"split_conditions":[-1.5834725E0,1.6920407E0,-4.0101796E-2,-1.0693435E-2,5.0993413E-2],"split_indices":[9,6,0,0,0],"split_type":[0,0,0,0,0],"sum_hessian":[3.1604578E0,2.0628402E0,1.0976177E0,1.0620035E0,1.0008368E0],"tree_param":{"num_deleted":"0","num_feature":"17","num_nodes":"5","size_leaf_vector":"1"}},{"base_weights":[-2.2153954E-3,-3.8958963E-2,8.138833E-2,-1.3561379E-2,4.879599E-2],"categories":[],"categories_nodes":[],"categories_segments":[],"categories_sizes":[],"default_left":[0,0,0,0,0],"id":69,"left_children":[1,-1,3,-1,-1],"loss_changes":[5.4713987E-2,0E0,3.9390527E-2,0E0,0E0],"parents":[2147483647,0,0,2,2],"right_children":[2,-1,4,-1,-1],"split_conditions":[1.2040333E0,-3.8958963E-2,-2.3835556E-1,-1.3561379E-2,4.879599E-2],"split_indices":[4,0,15,0,0],"split_type":[0,0,0,0,0],"sum_hessian":[3.1365561E0,1.0223278E0,2.1142285E0,1.000073E0,1.1141554E0],"tree_param":{"num_deleted":"0","num_feature":"17","num_nodes":"5","size_leaf_vector":"1"}},{"base_weights":[-2.3915472E-3,2.4546523E-2,-3.516259E-2],"categories":[],"categories_nodes":[],"categories_segments":[],"categories_sizes":[],"default_left":[0,0,0],"id":70,"left_children":[1,-1,-1],"loss_changes":[4.935556E-2,0E0,0E0],"parents":[2147483647,0,0],"right_children":[2,-1,-1],"split_conditions":[7.9601663E-1,2.4546523E-2,-3.516259E-2],"split_indices":[3,0,0],"split_type":[0,0,0],"sum_hessian":[3.1126108E0,1.9613903E0,1.1512206E0],"tree_param":{"num_deleted":"0","num_feature":"17","num_nodes":"3","size_leaf_vector":"1"}},{"base_weights":[-4.24313E-3,-3.4601655E-2,3.0596538E-2],"categories":[],"categories_nodes":[],"categories_segments":[],"categories_sizes":[],"default_left":[0,0,0],"id":71,"left_children":[1,-1,-1],"loss_changes":[6.020809E-2,0E0,0E0],"parents":[2147483647,0,0],"right_children":[2,-1,-1],"split_conditions":[7.078718E-1,-3.4601655E-2,3.0596538E-2],"split_indices":[3,0,0],"split_type":[0,0,0],"sum_hessian":[3.1048443E0,1.4757708E0,1.6290735E0],"tree_param":{"num_deleted":"0","num_feature":"17","num_nodes":"3","size_leaf_vector":"1"}},{"base_weights":[-3.9421273E-3,-2.95671E-2,2.7989807E-2],"categories":[],"categories_nodes":[],"categories_segments":[],"categories_sizes":[],"default_left":[0,0,0],"id":72,"left_children":[1,-1,-1],"loss_changes":[4.6775963E-2,0E0,0E0],"parents":[2147483647,0,0],"right_children":[2,-1,-1],"split_conditions":[-9.355076E-1,-2.95671E-2,2.7989807E-2],"split_indices":[7,0,0],"split_type":[0,0,0],"sum_hessian":[3.0846367E0,1.5565766E0,1.5280601E0],"tree_param":{"num_deleted":"0","num_feature":"17","num_nodes":"3","size_leaf_vector":"1"}},{"base_weights":[-3.1252557E-3,8.155477E-2,-3.791472E-2,-8.828769E-3,4.5497034E-2],"categories":[],"categories_nodes":[],"categories_segments":[],"categories_sizes":[],"default_left":[0,0,0,0,0],"id":73,"left_children":[1,3,-1,-1,-1],"loss_changes":[5.287673E-2,2.8001403E-2,0E0,0E0,0E0],"parents":[2147483647,0,0,1,1],"right_children":[2,4,-1,-1,-1],"split_conditions":[-1.5834725E0,-1.3694633E0,-3.791472E-2,-8.828769E-3,4.5497034E-2],"split_indices":[9,7,0,0,0],"split_type":[0,0,0,0,0],"sum_hessian":[3.0785608E0,2.025405E0,1.0531559E0,1.0086793E0,1.0167255E0],"tree_param":{"num_deleted":"0","num_feature":"17","num_nodes":"5","size_leaf_vector":"1"}},{"base_weights":[-2.4546944E-3,-3.0865818E-2,3.1460095E-2],"categories":[],"categories_nodes":[],"categories_segments":[],"categories_sizes":[],"default_left":[0,0,0],"id":74,"left_children":[1,-1,-1],"loss_changes":[5.4525983E-2,0E0,0E0],"parents":[2147483647,0,0],"right_children":[2,-1,-1],"split_conditions":[1.9459409E0,-3.0865818E-2,3.1460095E-2],"split_indices":[14,0,0],"split_type":[0,0,0],"sum_hessian":[3.0577807E0,1.6009477E0,1.456833E0],"tree_param":{"num_deleted":"0","num_feature":"17","num_nodes":"3","size_leaf_vector":"1"}},{"base_weights":[-1.5422616E-3,2.450315E-2,-3.3984393E-2],"categories":[],"categories_nodes":[],"categories_segments":[],"categories_sizes":[],"default_left":[0,0,0],"id":75,"left_children":[1,-1,-1],"loss_changes":[4.681358E-2,0E0,0E0],"parents":[2147483647,0,0],"right_children":[2,-1,-1],"split_conditions":[7.9601663E-1,2.450315E-2,-3.3984393E-2],"split_indices":[3,0,0],"split_type":[0,0,0],"sum_hessian":[3.0393224E0,1.8961622E0,1.1431603E0],"tree_param":{"num_deleted":"0","num_feature":"17","num_nodes":"3","size_leaf_vector":"1"}},{"base_weights":[-3.4171552E-3,-3.193824E-2,2.8481951E-2],"categories":[],"categories_nodes":[],"categories_segments":[],"categories_sizes":[],"default_left":[0,0,0],"id":76,"left_children":[1,-1,-1],"loss_changes":[5.097128E-2,0E0,0E0],"parents":[2147483647,0,0],"right_children":[2,-1,-1],"split_conditions":[7.078718E-1,-3.193824E-2,2.8481951E-2],"split_indices":[3,0,0],"split_type":[0,0,0],"sum_hessian":[3.0319345E0,1.440453E0,1.5914814E0],"tree_param":{"num_deleted":"0","num_feature":"17","num_nodes":"3","size_leaf_vector":"1"}},{"base_weights":[-3.238064E-3,-2.8703466E-2,2.754373E-2],"categories":[],"categories_nodes":[],"categories_segments":[],"categories_sizes":[],"default_left":[0,0,0],"id":77,"left_children":[1,-1,-1],"loss_changes":[4.4057574E-2,0E0,0E0],"parents":[2147483647,0,0],"right_children":[2,-1,-1],"split_conditions":[-9.355076E-1,-2.8703466E-2,2.754373E-2],"split_indices":[7,0,0],"split_type":[0,0,0],"sum_hessian":[3.0144763E0,1.5248747E0,1.4896017E0],"tree_param":{"num_deleted":"0","num_feature":"17","num_nodes":"3","size_leaf_vector":"1"}},{"base_weights":[-2.5374533E-3,-2.4829296E-2,3.4906417E-2],"categories":[],"categories_nodes":[],"categories_segments":[],"categories_sizes":[],"default_left":[0,0,0],"id":78,"left_children":[1,-1,-1],"loss_changes":[4.786696E-2,0E0,0E0],"parents":[2147483647,0,0],"right_children":[2,-1,-1],"split_conditions":[4.145775E0,-2.4829296E-2,3.4906417E-2],"split_indices":[13,0,0],"split_type":[0,0,0],"sum_hessian":[3.0087597E0,1.9779416E0,1.0308182E0],"tree_param":{"num_deleted":"0","num_feature":"17","num_nodes":"3","size_leaf_vector":"1"}},{"base_weights":[7.9497846E-4,2.4277734E-2,-3.2099716E-2],"categories":[],"categories_nodes":[],"categories_segments":[],"categories_sizes":[],"default_left":[0,0,0],"id":79,"left_children":[1,-1,-1],"loss_changes":[4.3131847E-2,0E0,0E0],"parents":[2147483647,0,0],"right_children":[2,-1,-1],"split_conditions":[7.9601663E-1,2.4277734E-2,-3.2099716E-2],"split_indices":[3,0,0],"split_type":[0,0,0],"sum_hessian":[2.9910138E0,1.8586245E0,1.1323894E0],"tree_param":{"num_deleted":"0","num_feature":"17","num_nodes":"3","size_leaf_vector":"1"}},{"base_weights":[-1.3860083E-3,-3.0473193E-2,2.8133707E-2],"categories":[],"categories_nodes":[],"categories_segments":[],"categories_sizes":[],"default_left":[0,0,0],"id":80,"left_children":[1,-1,-1],"loss_changes":[4.7514953E-2,0E0,0E0],"parents":[2147483647,0,0],"right_children":[2,-1,-1],"split_conditions":[7.078718E-1,-3.0473193E-2,2.8133707E-2],"split_indices":[3,0,0],"split_type":[0,0,0],"sum_hessian":[2.9843004E0,1.4209355E0,1.5633647E0],"tree_param":{"num_deleted":"0","num_feature":"17","num_nodes":"3","size_leaf_vector":"1"}},{"base_weights":[-1.538135E-3,2.3019968E-2,-3.1467702E-2],"categories":[],"categories_nodes":[],"categories_segments":[],"categories_sizes":[],"default_left":[0,0,0],"id":81,"left_children":[1,-1,-1],"loss_changes":[4.0145893E-2,0E0,0E0],"parents":[2147483647,0,0],"right_children":[2,-1,-1],"split_conditions":[7.9601663E-1,2.3019968E-2,-3.1467702E-2],"split_indices":[3,0,0],"split_type":[0,0,0],"sum_hessian":[2.9676714E0,1.8353269E0,1.1323445E0],"tree_param":{"num_deleted":"0","num_feature":"17","num_nodes":"3","size_leaf_vector":"1"}},{"base_weights":[-3.194794E-3,-2.78052E-2,2.8203884E-2],"categories":[],"categories_nodes":[],"categories_segments":[],"categories_sizes":[],"default_left":[0,0,0],"id":82,"left_children":[1,-1,-1],"loss_changes":[4.3176472E-2,0E0,0E0],"parents":[2147483647,0,0],"right_children":[2,-1,-1],"split_conditions":[1.9903401E0,-2.78052E-2,2.8203884E-2],"split_indices":[14,0,0],"split_type":[0,0,0],"sum_hessian":[2.9616973E0,1.5663012E0,1.3953961E0],"tree_param":{"num_deleted":"0","num_feature":"17","num_nodes":"3","size_leaf_vector":"1"}},{"base_weights":[-2.1179263E-3,2.616019E-2,-2.938763E-2],"categories":[],"categories_nodes":[],"categories_segments":[],"categories_sizes":[],"default_left":[0,0,0],"id":83,"left_children":[1,-1,-1],"loss_changes":[4.2326067E-2,0E0,0E0],"parents":[2147483647,0,0],"right_children":[2,-1,-1],"split_conditions":[1.9749428E0,2.616019E-2,-2.938763E-2],"split_indices":[11,0,0],"split_type":[0,0,0],"sum_hessian":[2.9465609E0,1.5718408E0,1.3747201E0],"tree_param":{"num_deleted":"0","num_feature":"17","num_nodes":"3","size_leaf_vector":"1"}},{"base_weights":[-2.2784574E-3,-2.4324702E-2,3.0511431E-2],"categories":[],"categories_nodes":[],"categories_segments":[],"categories_sizes":[],"default_left":[0,0,0],"id":84,"left_children":[1,-1,-1],"loss_changes":[4.0552545E-2,0E0,0E0],"parents":[2147483647,0,0],"right_children":[2,-1,-1],"split_conditions":[2.7086587E0,-2.4324702E-2,3.0511431E-2],"split_indices":[16,0,0],"split_type":[0,0,0],"sum_hessian":[2.9425159E0,1.7992145E0,1.1433015E0],"tree_param":{"num_deleted":"0","num_feature":"17","num_nodes":"3","size_leaf_vector":"1"}},{"base_weights":[9.712349E-6,-2.825688E-2,2.6370743E-2],"categories":[],"categories_nodes":[],"categories_segments":[],"categories_sizes":[],"default_left":[0,0,0],"id":85,"left_children":[1,-1,-1],"loss_changes":[4.0796027E-2,0E0,0E0],"parents":[2147483647,0,0],"right_children":[2,-1,-1],"split_conditions":[-1.0098553E0,-2.825688E-2,2.6370743E-2],"split_indices":[7,0,0],"split_type":[0,0,0],"sum_hessian":[2.927384E0,1.3784181E0,1.5489657E0],"tree_param":{"num_deleted":"0","num_feature":"17","num_nodes":"3","size_leaf_vector":"1"}},{"base_weights":[-4.4957167E-4,2.2808176E-2,-3.3377808E-2],"categories":[],"categories_nodes":[],"categories_segments":[],"categories_sizes":[],"default_left":[0,0,0],"id":86,"left_children":[1,-1,-1],"loss_changes":[4.169674E-2,0E0,0E0],"parents":[2147483647,0,0],"right_children":[2,-1,-1],"split_conditions":[-1.6436754E0,2.2808176E-2,-3.3377808E-2],"split_indices":[9,0,0],"split_type":[0,0,0],"sum_hessian":[2.9221745E0,1.9146487E0,1.0075258E0],"tree_param":{"num_deleted":"0","num_feature":"17","num_nodes":"3","size_leaf_vector":"1"}},{"base_weights":[-3.0191748E-3,-3.0222924E-2,2.2583393E-2],"categories":[],"categories_nodes":[],"categories_segments":[],"categories_sizes":[],"default_left":[0,0,0],"id":87,"left_children":[1,-1,-1],"loss_changes":[3.7477545E-2,0E0,0E0],"parents":[2147483647,0,0],"right_children":[2,-1,-1],"split_conditions":[3.0729752E0,-3.0222924E-2,2.2583393E-2],"split_indices":[13,0,0],"split_type":[0,0,0],"sum_hessian":[2.9069202E0,1.165529E0,1.7413913E0],"tree_param":{"num_deleted":"0","num_feature":"17","num_nodes":"3","size_leaf_vector":"1"}},{"base_weights":[-4.076231E-3,-2.8278919E-2,2.6699819E-2],"categories":[],"categories_nodes":[],"categories_segments":[],"categories_sizes":[],"default_left":[0,0,0],"id":88,"left_children":[1,-1,-1],"loss_changes":[4.105661E-2,0E0,0E0],"parents":[2147483647,0,0],"right_children":[2,-1,-1],"split_conditions":[-9.355076E-1,-2.8278919E-2,2.6699819E-2],"split_indices":[7,0,0],"split_type":[0,0,0],"sum_hessian":[2.8916476E0,1.4621351E0,1.4295126E0],"tree_param":{"num_deleted":"0","num_feature":"17","num_nodes":"3","size_leaf_vector":"1"}},{"base_weights":[-3.2396538E-3,2.4503183E-2,-2.8237421E-2],"categories":[],"categories_nodes":[],"categories_segments":[],"categories_sizes":[],"default_left":[0,0,0],"id":89,"left_children":[1,-1,-1],"loss_changes":[3.7683044E-2,0E0,0E0],"parents":[2147483647,0,0],"right_children":[2,-1,-1],"split_conditions":[-1.5689222E0,2.4503183E-2,-2.8237421E-2],"split_indices":[12,0,0],"split_type":[0,0,0],"sum_hessian":[2.886555E0,1.54465E0,1.3419049E0],"tree_param":{"num_deleted":"0","num_feature":"17","num_nodes":"3","size_leaf_vector":"1"}},{"base_weights":[-3.2235156E-3,2.2148877E-2,-3.0930534E-2],"categories":[],"categories_nodes":[],"categories_segments":[],"categories_sizes":[],"default_left":[0,0,0],"id":90,"left_children":[1,-1,-1],"loss_changes":[3.742406E-2,0E0,0E0],"parents":[2147483647,0,0],"right_children":[2,-1,-1],"split_conditions":[2.7059405E0,2.2148877E-2,-3.0930534E-2],"split_indices":[10,0,0],"split_type":[0,0,0],"sum_hessian":[2.8737493E0,1.7694644E0,1.1042849E0],"tree_param":{"num_deleted":"0","num_feature":"17","num_nodes":"3","size_leaf_vector":"1"}},{"base_weights":[-4.5100786E-3,-2.6626654E-2,2.7555076E-2],"categories":[],"categories_nodes":[],"categories_segments":[],"categories_sizes":[],"default_left":[0,0,0],"id":91,"left_children":[1,-1,-1],"loss_changes":[3.9572403E-2,0E0,0E0],"parents":[2147483647,0,0],"right_children":[2,-1,-1],"split_conditions":[3.8579383E0,-2.6626654E-2,2.7555076E-2],"split_indices":[13,0,0],"split_type":[0,0,0],"sum_hessian":[2.8704739E0,1.5736188E0,1.2968551E0],"tree_param":{"num_deleted":"0","num_feature":"17","num_nodes":"3","size_leaf_vector":"1"}},{"base_weights":[-2.9040724E-3,-2.6685674E-2,2.3709785E-2],"categories":[],"categories_nodes":[],"categories_segments":[],"categories_sizes":[],"default_left":[0,0,0],"id":92,"left_children":[1,-1,-1],"loss_changes":[3.4206234E-2,0E0,0E0],"parents":[2147483647,0,0],"right_children":[2,-1,-1],"split_conditions":[7.078718E-1,-2.6685674E-2,2.3709785E-2],"split_indices":[3,0,0],"split_type":[0,0,0],"sum_hessian":[2.8544922E0,1.3505509E0,1.5039414E0],"tree_param":{"num_deleted":"0","num_feature":"17","num_nodes":"3","size_leaf_vector":"1"}},{"base_weights":[-2.7962879E-3,2.3990411E-2,-3.275749E-2],"categories":[],"categories_nodes":[],"categories_segments":[],"categories_sizes":[],"default_left":[0,0,0],"id":93,"left_children":[1,-1,-1],"loss_changes":[4.2561263E-2,0E0,0E0],"parents":[2147483647,0,0],"right_children":[2,-1,-1],"split_conditions":[7.9601663E-1,2.3990411E-2,-3.275749E-2],"split_indices":[3,0,0],"split_type":[0,0,0],"sum_hessian":[2.8417475E0,1.7380874E0,1.1036602E0],"tree_param":{"num_deleted":"0","num_feature":"17","num_nodes":"3","size_leaf_vector":"1"}},{"base_weights":[-4.2288736E-3,-2.6825422E-2,2.3291694E-2],"categories":[],"categories_nodes":[],"categories_segments":[],"categories_sizes":[],"default_left":[0,0,0],"id":94,"left_children":[1,-1,-1],"loss_changes":[3.36928E-2,0E0,0E0],"parents":[2147483647,0,0],"right_children":[2,-1,-1],"split_conditions":[-1.0098553E0,-2.6825422E-2,2.3291694E-2],"split_indices":[7,0,0],"split_type":[0,0,0],"sum_hessian":[2.8356025E0,1.3444177E0,1.4911848E0],"tree_param":{"num_deleted":"0","num_feature":"17","num_nodes":"3","size_leaf_vector":"1"}},{"base_weights":[-3.8660802E-3,-2.438568E-2,2.9217144E-2],"categories":[],"categories_nodes":[],"categories_segments":[],"categories_sizes":[],"default_left":[0,0,0],"id":95,"left_children":[1,-1,-1],"loss_changes":[3.7955254E-2,0E0,0E0],"parents":[2147483647,0,0],"right_children":[2,-1,-1],"split_conditions":[2.7086587E0,-2.438568E-2,2.9217144E-2],"split_indices":[16,0,0],"split_type":[0,0,0],"sum_hessian":[2.831855E0,1.7165973E0,1.1152579E0],"tree_param":{"num_deleted":"0","num_feature":"17","num_nodes":"3","size_leaf_vector":"1"}},{"base_weights":[-1.4216009E-3,-2.6727265E-2,2.3963667E-2],"categories":[],"categories_nodes":[],"categories_segments":[],"categories_sizes":[],"default_left":[0,0,0],"id":96,"left_children":[1,-1,-1],"loss_changes":[3.43262E-2,0E0,0E0],"parents":[2147483647,0,0],"right_children":[2,-1,-1],"split_conditions":[1.4140606E0,-2.6727265E-2,2.3963667E-2],"split_indices":[6,0,0],"split_type":[0,0,0],"sum_hessian":[2.817539E0,1.3095652E0,1.5079738E0],"tree_param":{"num_deleted":"0","num_feature":"17","num_nodes":"3","size_leaf_vector":"1"}},{"base_weights":[-1.6994674E-3,-2.6120579E-2,2.5470488E-2],"categories":[],"categories_nodes":[],"categories_segments":[],"categories_sizes":[],"default_left":[0,0,0],"id":97,"left_children":[1,-1,-1],"loss_changes":[3.557113E-2,0E0,0E0],"parents":[2147483647,0,0],"right_children":[2,-1,-1],"split_conditions":[-9.355076E-1,-2.6120579E-2,2.5470488E-2],"split_indices":[7,0,0],"split_type":[0,0,0],"sum_hessian":[2.8115294E0,1.4131168E0,1.3984126E0],"tree_param":{"num_deleted":"0","num_feature":"17","num_nodes":"3","size_leaf_vector":"1"}},{"base_weights":[-1.3423514E-3,-2.6200967E-2,2.4029527E-2],"categories":[],"categories_nodes":[],"categories_segments":[],"categories_sizes":[],"default_left":[0,0,0],"id":98,"left_children":[1,-1,-1],"loss_changes":[3.36574E-2,0E0,0E0],"parents":[2147483647,0,0],"right_children":[2,-1,-1],"split_conditions":[7.078718E-1,-2.6200967E-2,2.4029527E-2],"split_indices":[3,0,0],"split_type":[0,0,0],"sum_hessian":[2.8069723E0,1.3301057E0,1.4768666E0],"tree_param":{"num_deleted":"0","num_feature":"17","num_nodes":"3","size_leaf_vector":"1"}},{"base_weights":[-1.4987305E-3,2.272967E-2,-3.0088997E-2],"categories":[],"categories_nodes":[],"categories_segments":[],"categories_sizes":[],"default_left":[0,0,0],"id":99,"left_children":[1,-1,-1],"loss_changes":[3.6564447E-2,0E0,0E0],"parents":[2147483647,0,0],"right_children":[2,-1,-1],"split_conditions":[7.9601663E-1,2.272967E-2,-3.0088997E-2],"split_indices":[3,0,0],"split_type":[0,0,0],"sum_hessian":[2.7944872E0,1.6989555E0,1.0955316E0],"tree_param":{"num_deleted":"0","num_feature":"17","num_nodes":"3","size_leaf_vector":"1"}}]},"name":"gbtree"},"learner_model_param":{"base_score":"5E-1","boost_from_average":"1","num_class":"0","num_feature":"17","num_target":"1"},"objective":{"name":"binary:logistic","reg_loss_param":{"scale_pos_weight":"1.24975026"}}},"version":[2,1,4]}